tree
version=v3
num_class=1
num_tree_per_iteration=1
label_index=0
max_feature_idx=3
objective=regression
feature_names=log_distance weekday pu_hour pu_loc
feature_infos=[-1.6094379124341003:4.0812593226734455] [1:7] [1:24] [1:38]
tree_sizes=1570 1602 1617 1623 1641 1603 1627 1602 1644 1640 1569 1624 1625 1646 1619 1600 1648 1604 1533 1560 1582 1598 1609 1612 1617 1567 1585 1624 1564 1593 1630 1524 1599 1617 1579 1593 1605 1603 1627 1585 1559 1566 1597 1617 1582 1551 1565 1596 1589 1573 1559 1590 1590 1599 1542 1594 1595 1575 1593 1603 1586 1536 1535 1599 1585 1629 1599 1587 1576 1572 1597 1582 1574 1524 1623 1616 1596 1572 1540 1573 1586 1584 1576 1579 1584 1578 1544 1576 1606 1505 1546 1577 1595 1578 1528 1607 1604 1578 1598 1584 1612 1547 1529 1529 1593 1552 1492 1577 1584 1553 1575 1508 1538 1532 1550 1606 1555 1543 1584 1599 1574 1578 1609 1600 1548 1546 1593 1554 1549 1512 1495 1569 1609 1563 1631 1575 1584 1551 1595 1555 1597 1541 1586 1605 1553 1554 1597 1600 1573 1509 1563 1545 1549 1604 1529 1561 1578 1538 1585 1588 1588 1553 1520 1573 1539 1523 1576 1559 1607 1586 1603 1549 1544 1572 1535 1516 1579 1540 1570 1568 1550 1555 1595 1617 1626 1540 1537 1553 1566 1554 1517 1563 1554 1566 1579 1558 1607 1574 1505 1517 1541 1573 1532 1514 1570 1591 1538 1526 1520 1532 1566 1507 1600 1563 1547 1580 1547 1531 1546 1587 1522 1579 1588 1577 1596 1550 1552 1572 1553 1457 1604 1577 1601 1567 1563 1555 1564 1530 1577 1565 1591 1564 1519 1570 1513 1533 1463 1523 1557 1492 1556 1591 1609 1530 1589 1602 1598 1548 1541 1551 1576 1526 1539 1564 1555 1536 1515 1569 1567 1527 1564 1553 1571 1572 1504 1491 1547 1573 1545 1508 1593 1522 1541 1577 1571 1521 1583 1571 1499 1595 1537 1559 1541 1572 1500 1600 1529 1614 1503 1466 1516 1514 1574 1579 1584 1524 1524 1633 1573 1534 1580 1536 1598 1547 1569 1609 1599 1581 1582 1531 1636 1520 1545 1588 1598 1560 1557 1423 1549 1598 1580 1587 1547 1600 1611 1563 1632 1485 1536 1525 1506 1574 1446 1593 1574 1536 1581 1551 1549 1591 1574 1572 1582 1556 1505 1520 1545 1572 1543 1549 1551 1541 1584 1478 1601 1569 1601 1598 1502 1564 1643 1596 1568 1428 1615 1522 1572 1569 1568 1539 1564 1567 1549 1571 1531 1532 1519 1471 1588 1522 1510 1554 1542 1502 1612 1576 1571 1593 1573 1561 1532 1568 1541 1575 1539 1564 1546 1422 1549 1561 1503 1519 1518 1584 1428 1574 1535 1525 1482 1470 1553 1535 1589 1612 1499 1544 1567 1550 1505 1546 1550 1564 1486 1564 1569 1555 1596 1518 1541 1574 1534 1557 1570 1570 1520 1566 1585 1570 1579 1477 1567 1564 1566 1543 1577 1576 1516 1548 1589 1540 1581 1553 1549 1610 1579 1524 1478 1570 1599 1624 1548 1542 1635 1578 1552 1527 1566 1569 1593 1531 1564 1582 1599 1462 1571 1482 1554 1560 1598 1527 1573 1577 1577 1628 1532 1503 1578 1526 1607 1473 1502 1498 1505 1630 1515 1499 1509 1519 1522 1584 1404 1523 1492 1547 1599 1443 1599 1542 1545 1580 1543 1554 1554 1496 1580 1565 1570 1541 1541 1591 1520 1533 1591 1474 1560 1614 1522 1552 1570 1480 1496 1537 1496 1510 1512 1519 1577 1526 1539 1554 1561 1500 1623 1530 1463 1536 1551 1558 1389 1481 1552 1568 1566 1555 1602 1558 1514 1532 1546 1560 1605 1511 1525 1537 1570 1561 1479 1509 1518 1526 1537 1569 1424 1613 1644 1571 1491 1488 1554 1585 1523 1569 1492 1558 1505 1606 1582 1490 1531 1569 1539 1543 1554 1567 1452 1604 1470 1505 1565 1648 1534 1540 1520 1551 1593 1521 1576 1530 1530 1507 1562 1475 1601 1583 1549 1578 1445 1501 1507 1589 1542 1634 1580 1570 1555 1544 1545 1588 1589 1571 1571 1530 1594 1539 1470 1491 1490 1555 1526 1433 1488 1559 1594 1534 1547 1457 1556 1530 1555 1559 1491 1542 1587 1588 1507 1583 1623 1466 1571 1530 1434 1489 1542 1549 1557 1581 1583 1551 1578 1539 1573 1533 1553 1571 1555 1571 1524 1535 1601 1518 1476 1469 1564 1615 1546 1480 1519 1559 1501 1559 1452 1468 1539 1396 1566 1542 1551 1599 1571 1498 1513 1641 1587 1504 1559 1562 1530 1550 1564 1528 1572 1549 1505 1546 1487 1600 1467 1508 1449 1546 1548 1553 1529 1526 1486 1459 1597 1531 1541 1451 1557 1469 1497 1567 1595 1379 1540 1504 1572 1480 1491 1593 1583 1532 1556 1539 1572 1517 1576 1548 1595 1487 1510 1439 1523 1454 1507 1514 1552 1554 1544 1484 1493 1565 1402 1523 1510 1553 1459 1518 1468 1484 1441 1605 1509 1472 1544 1548 1573 1555 1535 1545 1610 1598 1474 1424 1471 1567 1577 1535 1617 1549 1539 1516 1596 1498 1534 1546 1558 1533 1575 1547 1500 1579 1445 1567 1533 1503 1522 1530 1535 1473 1564 1559 1535 1551 1578 1511 1589 1483 1558 1469 1604 1648 1526 1467 1542 1530 1472 1516 1510 1495 1596 1450 1534 1458 1575 1642 1549 1529 1506 1548 1517 1544 1548 1564 1553 1548 1421 1485 1527 1518 1544 1545 1542 1505 1559 1559 1571 1566 1576 1493 1478 1584 1616 1539 1471 1576 1540 1519 1544 1524 1498 1490 1589 1520 1447 1554 1550 1524 1436 1415 1553 1573 1393 1528 1565 1525 1532 1576 1531 1496 1593 1554 1509 1522 1548 1463 1546 1432 1519 1421 1604 1486 1486 1532 1553 1573 1504 1583 1549 1552 1425 1522 1514 1571 1631 1556 1599 1514 1505 1530 1584 1511 1562 1553 1567 1558 1539 1418 1647 1586 1527 1544 1607 1561 1458 1570 1530 1579 1455 1514 1518 1499 1515 1531 1581 1564 1513 1567 1498 1493 1436 1542 1485 1501 1445 1442 1479 1504 1575 1529 1540 1498 1511 1460 1563 1471 1461 1517 1476 1455 1490 1473 1523 1544 1511 1487 1543 1496 1595 1463 1500 1490 1559 1537 1581 1485 1618 1576 1512 1576 1600 1584 1476 1544 1496 1494 1590 1441 1559 1423 1439 1563 1547 1434 1440 1590 1450 1503 1481 1514 1552 1621 1428 1508 1568 1594 1549 1507 1511 1540 1551 1557 1459 1554 1554 1555 1567 1485 1494 1549 1443 1509 1568 1495 1536 1581 1551 1557 1482 1541 1597 1556 1478 1447 1450 1580 1494 1502 1436 1584 1550 1522 1495 1527 1384 1550 1549 1562 1514 1596 1522 1579 1566 1547 1483 1491 1517 1423 1428 1513 1444 1611 1509 1488 1492 1540 1398 1433 1548 1459 1611 1532 1517 1563 1553 1586 1484 1541 1503 1520 1382 1586 1547 1562 1536 1507 1510 1572 1482 1410 1592 1584 1502 1487 1511 1560 1535 1546 1614 1469 1484 1494 1452 1557 1588 1362 1494 1577 1561 1423 1539 1448 1585 1519 1489 1538 1543 1564 1511 1543 1557 1540 1498 1447 1458 1529 1518 1543 1573 1559 1466 1478 1599 1479 1498 1539 1450 1510 1597 1509 1457 1525 1522 1485 1490 1563 1509 1551 1554 1509 1593 1534 1515 1380 1523 1568 1535 1497 1553 1537 1546 1499 1620 1484 1583 1514 1496 1513 1528 1579 1583 1473 1581 1497 1570 1521 1408 1593 1594 1591 1584 1529 1565 1464 1391 1531 1588 1484 1494 1556 1455 1514 1561 1444 1519 1564 1519 1494 1448 1605 1544 1501 1569 1540 1552 1412 1524 1467 1560 1550 1513 1497 1467 1493 1547 1556 1578 1543 1501 1551 1519 1593 1491 1594 1551 1574 1530 1479 1535 1581 1581 1557 1548 1567 1401 1452 1515 1565 1575 1416 1517 1505 1453 1520 1456 1469 1533 1606 1558 1531 1561 1551 1466 1566 1480 1551 1431 1441 1517 1541 1490 1586 1533 1612 1512 1554 1473 1438 1485 1497 1513 1579 1559 1569 1498 1536 1522 1455 1507 1606 1575 1537 1615 1538 1516 1423 1550 1495 1562 1498 1523 1552 1570 1530 1543 1601 1571 1495 1506 1501 1503 1473 1453 1412 1642 1470 1552 1515 1516 1465 1495 1545 1530 1524 1467 1552 1572 1554 1530 1492 1469 1364 1479 1557 1448 1489 1526 1617 1441 1556 1511 1392 1513 1581 1552 1385 1483 1586 1508

Tree=0
num_leaves=15
num_cat=0
split_feature=0 0 0 3 3 2 0 2 0 0 0 3 0 3
split_gain=1.71608e+06 311193 44181.8 35801.5 74869.6 25892.2 43527.1 13474.8 130590 50425.5 28942.3 12475.1 14418.7 12370.2
threshold=0.46686882273893798 -0.22943294241763976 -0.70324853421870492 12.500000000000002 9.5000000000000018 9.5000000000000018 0.090743938022688694 9.5000000000000018 1.0969428380353528 1.3015522071236594 2.0924809649028577 10.500000000000002 2.2612419936845689 11.500000000000002
decision_type=2 2 2 2 2 2 2 2 2 2 2 2 2 2
left_child=1 2 -1 4 -2 -3 -7 9 -9 -5 -10 12 -6 -13
right_child=3 5 -4 7 11 6 -8 8 10 -11 -12 13 -14 -15
leaf_value=1.0842647983336009 2.7735233732255602 1.814797955344055 1.5297772054168743 2.3791744274064368 2.7100032540542913 1.9237500257480469 2.2276809358057608 2.596052925543662 3.0375452671762959 3.0017115014720992 3.5454697679799438 2.6857414210486308 3.6702555166092159 3.3017156289007987
leaf_weight=300153 588883 392350 862476 322982 17660 828039 1093552 1156375 634963 217900 136315 39716 137818 182885
leaf_count=300153 588883 392350 862476 322982 17660 828039 1093552 1156375 634963 217900 136315 39716 137818 182885
internal_value=2.33215 1.83683 1.41475 2.83339 2.9965 2.04891 2.09671 2.76949 2.80863 2.62998 3.12733 3.34378 3.56123 3.19185
internal_weight=0 3.47657e+06 1.16263e+06 3.4355e+06 966962 2.31394e+06 1.92159e+06 2.46854e+06 1.92765e+06 540882 771278 378079 155478 222601
internal_count=6912067 3476570 1162629 3435497 966962 2313941 1921591 2468535 1927653 540882 771278 378079 155478 222601
is_linear=0
shrinkage=1


Tree=1
num_leaves=15
num_cat=0
split_feature=2 1 2 1 3 1 2 0 0 3 0 3 3 2
split_gain=26723.4 16259.9 24074.8 10931.5 8612.54 6853.24 5974.89 5521.46 4957.39 3773 3057.13 3488.11 2584.78 2496.31
threshold=21.500000000000004 2.5000000000000004 8.5000000000000018 6.5000000000000009 28.500000000000004 4.5000000000000009 12.500000000000002 1.6873240232143096 0.73955070535304857 17.500000000000004 1.3622569635664379 9.5000000000000018 9.5000000000000018 20.500000000000004
decision_type=2 2 2 2 2 2 2 2 2 2 2 2 2 2
left_child=1 -1 7 4 9 10 -5 -3 -6 -4 -2 -12 -9 -11
right_child=5 2 3 6 8 -7 -8 12 -10 13 11 -13 -14 -15
leaf_value=-0.058515219416889544 -0.24589304135212592 -0.14859541617194857 0.11470532246703909 -0.23322234681430581 -0.0011261578241043436 -0.050244009441796682 0.019795005514428275 0.39412662448071833 0.14728714947936031 0.22264283206501048 0.317299102182861 -0.14182364102935538 0.01651149390155722 0.055264766388698205
leaf_weight=1604290 502157 586096 924343 115742 705028 465644 481797 22078 330558 836068 19237 117929 101286 99814
leaf_count=1604290 502157 586096 924343 115742 705028 465644 481797 22078 330558 836068 19237 117929 101286 99814
internal_value=0 0.0271295 0.0598226 0.0939311 0.119342 -0.142536 -0.0292095 -0.10812 0.0462441 0.160033 -0.209749 -0.0773905 0.0841442 0.204796
internal_weight=0 5.8071e+06 4.20281e+06 3.49335e+06 2.89581e+06 1.10497e+06 597539 709460 1.03559e+06 1.86022e+06 639323 137166 123364 935882
internal_count=6912067 5807100 4202810 3493350 2895811 1104967 597539 709460 1035586 1860225 639323 137166 123364 935882
is_linear=0
shrinkage=1


Tree=2
num_leaves=15
num_cat=0
split_feature=0 0 0 3 0 3 3 0 3 3 2 2 3 0
split_gain=13046.5 14618.3 9297.62 6716.98 3651.05 6572.34 3270.84 5386.64 2783.08 2321.79 2259.45 2116.09 1656.04 6767.29
threshold=0.83073047025062619 0.46686882273893798 0.31114771979399719 12.500000000000002 2.4514359469110603 9.5000000000000018 9.5000000000000018 1.1832585901438895 10.500000000000002 30.500000000000004 7.5000000000000009 9.5000000000000018 13.500000000000002 1.0969428380353528
decision_type=2 2 2 2 2 2 2 2 2 2 2 2 2 2
left_child=1 2 9 11 6 -6 7 -2 10 -1 -7 -3 -8 -14
right_child=4 3 -4 -5 5 8 12 -9 -10 -11 -12 -13 13 -15
leaf_value=-0.0038929444782415642 -0.007412487189357944 -0.44258738914034862 0.1261262900869155 -0.088846734960677673 0.77554303089036902 -0.2696195515451219 -0.049516143676300584 0.24369558746970171 0.23733791486895472 -0.069208508903642996 0.086692599271581863 -0.223671837820026 0.13655144027614949 -0.0080855295235541056
leaf_weight=2245517 150212 58239 512656 907632 16861 21344 232388 197973 124353 718397 106828 183505 492052 944110
leaf_count=2245517 150212 58239 512656 907632 16861 21344 232388 197973 124353 718397 106828 183505 492052 944110
internal_value=0 -0.0305406 0.00178076 -0.128308 0.0618017 0.17115 0.0471929 0.135355 0.130758 -0.0197257 0.0273138 -0.27644 0.0287928 0.0414671
internal_weight=0 4.62595e+06 3.47657e+06 1.14938e+06 2.28612e+06 269386 2.01674e+06 348185 252525 2.96391e+06 128172 241744 1.66855e+06 1.43616e+06
internal_count=6912067 4625946 3476570 1149376 2286121 269386 2016735 348185 252525 2963914 128172 241744 1668550 1436162
is_linear=0
shrinkage=1


Tree=3
num_leaves=15
num_cat=0
split_feature=0 2 1 2 2 2 2 0 0 0 1 2 2 0
split_gain=1749.15 2473.03 2374.96 2102.98 2880.79 1745.12 1721.34 2728.3 1922.6 2450.25 1628.43 1350.44 1315.75 1249.28
threshold=-1.0643158929353036 2.5000000000000004 1.5000000000000002 14.500000000000002 6.5000000000000009 17.500000000000004 10.500000000000002 -0.015126521585510457 -0.22943294241763976 -0.39307002370455485 5.5000000000000009 9.5000000000000018 12.500000000000002 -0.70324853421870492
decision_type=2 2 2 2 2 2 2 2 2 2 2 2 2 2
left_child=-1 -2 3 4 -3 6 7 11 9 13 -7 -4 -6 -8
right_child=1 2 5 -5 12 10 8 -9 -10 -11 -12 -13 -14 -15
leaf_value=-0.13185800535463113 0.071945446465375873 0.0105389855426892 -0.15809417972119222 -0.01029736138511307 -0.2619748917193277 -0.033643511533983782 0.15264854971838593 0.015030215597497053 0.02157108385259485 0.21390894580827147 0.021941710447410483 -0.0051429944229241433 -0.10104001018405871 -0.0011355028487978998
leaf_weight=99155 469544 112526 163935 422835 111457 1683848 74523 792409 1724443 126352 767081 89184 93567 181208
leaf_count=99155 469544 112526 163935 422835 111457 1683848 74523 792409 1724443 126352 767081 89184 93567 181208
internal_value=0 0.00191793 -0.00326504 -0.0564941 -0.117993 0.00376807 0.0193308 -0.0138368 0.0357948 0.099978 -0.016245 -0.104221 -0.188555 0.0436665
internal_weight=0 6.81291e+06 6.34337e+06 740385 317550 5.60298e+06 3.15205e+06 1.04553e+06 2.10653e+06 382083 2.45093e+06 253119 205024 255731
internal_count=6912067 6812912 6343368 740385 317550 5602983 3152054 1045528 2106526 382083 2450929 253119 205024 255731
is_linear=0
shrinkage=1


Tree=4
num_leaves=15
num_cat=0
split_feature=0 0 3 3 0 0 0 0 0 0 3 2 0 0
split_gain=909.817 588.835 1111.78 2572.69 1070.03 1512.2 1271.03 1844.46 1158.8 1599.8 1091.01 1778.73 2355.15 2386.7
threshold=3.019204599922253 1.5902545734615054 16.500000000000004 11.500000000000002 0.090743938022688694 -0.035640601002481863 -0.22943294241763976 -0.43853500936043682 -0.70324853421870492 -0.53617995876202196 23.500000000000004 9.5000000000000018 1.3015522071236594 1.0969428380353528
decision_type=2 2 2 2 2 2 2 2 2 2 2 2 2 2
left_child=1 2 3 -1 5 6 7 8 -4 -10 -6 12 13 -12
right_child=-2 -3 4 -5 10 -7 -8 -9 9 -11 11 -13 -14 -15
leaf_value=-0.00012858501700470636 0.16611492303831657 0.023276474502861327 0.057320548463947497 -0.081297064675503836 0.022768242373242809 0.095792200373354577 -0.032999617641811266 0.10014742634012962 -0.11012434897653683 0.032984617630569826 0.040016420751527365 -0.036169157735128021 -0.1539941176075442 0.29303299840823399
leaf_weight=1287642 32807 885488 209060 560512 833044 258451 419616 281453 156870 155521 259758 1476330 51979 43536
leaf_count=1287642 32807 885488 209060 560512 833044 258451 419616 281453 156870 155521 259758 1476330 51979 43536
internal_value=0 -0.000793172 -0.00434979 -0.0247479 0.00474295 0.0262936 0.0115973 0.0349097 -0.000295557 -0.038867 -0.00723314 -0.0208805 0.0426394 0.0763549
internal_weight=0 6.87926e+06 5.99377e+06 1.84815e+06 4.14562e+06 1.48097e+06 1.22252e+06 802904 521451 312391 2.66465e+06 1.8316e+06 355273 303294
internal_count=6912067 6879260 5993772 1848154 4145618 1480971 1222520 802904 521451 312391 2664647 1831603 355273 303294
is_linear=0
shrinkage=1


Tree=5
num_leaves=15
num_cat=0
split_feature=2 1 1 0 0 3 3 0 0 0 3 0 0 0
split_gain=770.698 1431.71 1879.99 1159.32 2531.29 1092.9 1009.9 989.449 902.815 718.226 1121.61 564.026 507.685 479.875
threshold=7.5000000000000009 6.5000000000000009 1.5000000000000002 0.62325745929580278 0.83073047025062619 12.500000000000002 11.500000000000002 0.46686882273893798 0.83073047025062619 0.83073047025062619 12.500000000000002 2.0924809649028577 0.5276783899985763 0.90218975029207871
decision_type=2 2 2 2 2 2 2 2 2 2 2 2 2 2
left_child=1 2 -1 7 -5 6 8 -2 -4 -3 -11 -7 -9 -6
right_child=3 9 5 4 13 11 -8 12 -10 10 -12 -13 -14 -15
leaf_value=0.03077231752840319 -0.00059391276631555088 0.10378804307583307 -0.049259832383419744 0.082864886803865861 -0.04601169595862472 -0.059477380918037587 -0.4331427985540337 -0.090411525282053345 -0.20430547054591197 -0.17010403322789946 0.065798960568717771 0.095080536089173676 -0.023688158738349355 0.0091937140443170261
leaf_weight=221006 3109964 108521 76397 521780 173710 337617 11502 184926 74036 31198 56886 25361 298076 1681087
leaf_count=221006 3109964 108521 76397 521780 173710 337617 11502 184926 74036 31198 56886 25361 298076 1681087
internal_value=0 -0.026572 -0.0465841 0.00419799 0.0213333 -0.0791613 -0.147487 -0.0071351 -0.125599 0.0493321 -0.0177162 -0.0486658 -0.0492437 0.00402116
internal_weight=0 942524 745919 5.96954e+06 2.37658e+06 524913 161935 3.59297e+06 150433 196605 88084 362978 483002 1.8548e+06
internal_count=6912067 942524 745919 5969543 2376577 524913 161935 3592966 150433 196605 88084 362978 483002 1854797
is_linear=0
shrinkage=1


Tree=6
num_leaves=15
num_cat=0
split_feature=3 3 3 3 0 2 0 1 2 3 3 0 3 1
split_gain=775.494 1353.36 1244.3 542.198 736.978 1609.23 750.076 602.488 552.875 438.083 839.389 657.703 619.213 426.387
threshold=25.500000000000004 24.500000000000004 23.500000000000004 27.500000000000004 2.0924809649028577 9.5000000000000018 1.8091077721813849 6.5000000000000009 19.500000000000004 28.500000000000004 32.500000000000007 0.70556665223340476 34.500000000000007 4.5000000000000009
decision_type=2 2 2 2 2 2 2 2 2 2 2 2 2 2
left_child=1 2 -1 -2 6 -6 7 8 13 -9 11 -11 -12 -5
right_child=3 -3 -4 4 5 -7 -8 9 -10 10 12 -13 -14 -15
leaf_value=0.0075617498566301717 -0.062683651230634338 0.080919301779384459 -0.090720566562190338 -0.0035893167978092149 0.09730501938800197 -0.18942967195054494 0.090350442461658603 0.069312987147816488 -0.029707891450161471 -0.17656089683101453 0.092562364374832035 0.0017556534569916167 -0.047211994814463754 0.032839264711404692
leaf_weight=3737319 202539 244281 133405 1071491 28731 61279 78635 29429 547070 79436 38786 27906 172936 458824
leaf_count=3737319 202539 244281 133405 1071491 28731 61279 78635 29429 547070 79436 38786 27906 172936 458824
internal_value=0 0.00873026 0.00417323 -0.01285 -0.00895805 -0.0978597 -0.00576113 -0.00887851 -0.00242168 -0.0473556 -0.0581305 -0.130169 -0.021585 0.00733031
internal_weight=0 4.115e+06 3.87072e+06 2.79706e+06 2.59452e+06 90010 2.50451e+06 2.42588e+06 2.07738e+06 348493 319064 107342 211722 1.53032e+06
internal_count=6912067 4115005 3870724 2797062 2594523 90010 2504513 2425878 2077385 348493 319064 107342 211722 1530315
is_linear=0
shrinkage=1


Tree=7
num_leaves=15
num_cat=0
split_feature=0 3 0 0 0 0 2 1 2 0 2 3 3 2
split_gain=466.525 449.807 416.454 324.534 899.651 818.109 617.497 940.648 559.847 526.906 2190.4 603.763 1777.78 704.486
threshold=-1.2554200159072522 2.5000000000000004 0.98767899406825665 1.0969428380353528 0.98767899406825665 1.433892629611685 16.500000000000004 2.5000000000000004 3.5000000000000004 2.0924809649028577 19.500000000000004 12.500000000000002 11.500000000000002 21.500000000000004
decision_type=2 2 2 2 2 2 2 2 2 2 2 2 2 2
left_child=-1 2 -2 4 -3 8 7 -7 -5 11 -11 12 13 -8
right_child=1 3 -4 5 -6 6 9 -9 -10 10 -12 -13 -14 -15
leaf_value=-0.11859066511763382 -0.056279775179844817 0.0033877280897037397 0.032036348130757564 0.043737320413638862 0.068324260589155333 0.043573923870040721 0.23531607657338022 -0.042253204124751642 -0.054967711653785153 0.11813254192739497 -0.080443723377412263 0.092631758905496436 -0.30327283458846788 -0.030526565821846811
leaf_weight=33006 240768 4751717 68540 65685 223387 184916 17919 412453 456584 92214 139675 186450 16352 22401
leaf_count=33006 240768 4751717 68540 65685 223387 184916 17919 412453 456584 92214 139675 186450 16352 22401
internal_value=0 0.000569574 -0.0366964 0.00232473 0.00630434 -0.0100886 0.00571498 -0.0156784 -0.0425456 0.0326274 -0.0014585 0.0651539 -0.0251776 0.0875417
internal_weight=0 6.87906e+06 309308 6.56975e+06 4.9751e+06 1.59465e+06 1.07238e+06 597369 522269 475011 231889 243122 56672 40320
internal_count=6912067 6879061 309308 6569753 4975104 1594649 1072380 597369 522269 475011 231889 243122 56672 40320
is_linear=0
shrinkage=1


Tree=8
num_leaves=15
num_cat=0
split_feature=2 2 2 0 0 2 3 0 3 2 0 1 3 2
split_gain=426.004 887.118 756 472.373 454.073 666.754 440.475 740.466 674.521 2069.51 448.856 309.294 538.524 369.683
threshold=21.500000000000004 22.500000000000004 20.500000000000004 -0.22943294241763976 -0.11094716595688887 2.5000000000000004 16.500000000000004 2.0924809649028577 27.500000000000004 9.5000000000000018 -0.035640601002481863 2.5000000000000004 22.500000000000004 3.5000000000000004
decision_type=2 2 2 2 2 2 2 2 2 2 2 2 2 2
left_child=2 -2 4 -3 5 -1 -6 10 9 -9 -8 -12 13 -13
right_child=1 3 -4 -5 6 -7 7 8 -10 -11 11 12 -14 -15
leaf_value=-0.10780681811379778 0.057044479087240592 0.064615587070045083 -0.043792548758118346 -0.012277507278079651 0.019085243582725311 -0.011159408086438512 0.054120767189764982 0.10574040047846395 -0.0035418782222782215 -0.25144701616450416 0.016120535885841367 0.035031272055047261 0.00094806578415948918 -0.051238707329326914
leaf_weight=76182 381147 91434 429586 632386 1416029 1134887 151533 23735 74201 51120 682389 57251 1337638 372549
leaf_count=76182 381147 91434 429586 632386 1416029 1134887 151533 23735 74201 51120 682389 57251 1337638 372549
internal_value=0 0.0179978 -0.00342399 -0.00255816 -0.000198319 -0.0172429 0.00475513 -0.00262118 -0.0711653 -0.138137 0.001305 -0.00196042 -0.00894359 -0.0397375
internal_weight=0 1.10497e+06 5.8071e+06 723820 5.37751e+06 1.21107e+06 4.16644e+06 2.75042e+06 149056 74855 2.60136e+06 2.44983e+06 1.76744e+06 429800
internal_count=6912067 1104967 5807100 723820 5377514 1211069 4166445 2750416 149056 74855 2601360 2449827 1767438 429800
is_linear=0
shrinkage=1


Tree=9
num_leaves=15
num_cat=0
split_feature=0 0 1 0 3 0 0 0 2 2 0 2 0 3
split_gain=379.162 774.477 392.811 386.932 255.584 287.947 262.718 547.079 503.885 246.443 236.24 298.673 494.832 477.565
threshold=-0.22943294241763976 -0.14504247853404564 3.5000000000000004 -0.30790791881181084 34.500000000000007 0.46686882273893798 0.21912746546557765 0.090743938022688694 9.5000000000000018 17.500000000000004 0.31114771979399719 10.500000000000002 0.46686882273893798 8.5000000000000018
decision_type=2 2 2 2 2 2 2 2 2 2 2 2 2 2
left_child=3 -2 -3 -1 6 -6 7 -4 -9 -5 -8 12 -12 -14
right_child=1 2 4 9 5 -7 10 8 -10 -11 11 -13 13 -15
leaf_value=0.010593771568617912 -0.054471467115114455 -0.010458234873366319 0.018244114369280449 0.034933929121288058 0.020939754743163903 -0.027327045730991772 0.055203804261907186 0.060654713618242401 -0.062395495057198824 0.13239490079064359 0.08056618844094332 0.020924080947589668 -0.082596721681906321 -0.0014569052910213527
leaf_weight=1053478 281608 2350180 349610 66399 179201 397873 146847 39473 210964 42752 54335 1345357 95904 298086
leaf_count=1053478 281608 2350180 349610 66399 179201 397873 146847 39473 210964 42752 54335 1345357 95904 298086
internal_value=0 -0.00333012 -0.000695397 0.0164706 0.00666285 -0.0123316 0.0109789 -0.00730356 -0.0429835 0.0731503 0.0166342 0.0134741 -0.00887311 -0.0212191
internal_weight=0 5.74944e+06 5.46783e+06 1.16263e+06 3.11765e+06 577074 2.54058e+06 600047 250437 109151 1.94053e+06 1.79368e+06 448325 393990
internal_count=6912067 5749438 5467830 1162629 3117650 577074 2540576 600047 250437 109151 1940529 1793682 448325 393990
is_linear=0
shrinkage=1


Tree=10
num_leaves=15
num_cat=0
split_feature=2 0 2 2 0 0 3 3 3 2 1 0 3 3
split_gain=229.864 303.855 370.772 452.001 349.205 638.671 565.938 470.919 378.259 304.538 324.31 287.685 1115.43 684.399
threshold=1.5000000000000002 1.9013607002685291 8.5000000000000018 4.5000000000000009 2.4514359469110603 2.7716507335919962 9.5000000000000018 10.500000000000002 10.500000000000002 8.5000000000000018 2.5000000000000004 2.3130302284397972 10.500000000000002 11.500000000000002
decision_type=2 2 2 2 2 2 2 2 2 2 2 2 2 2
left_child=-1 2 3 -2 6 7 9 -6 -7 10 -3 13 -13 -8
right_child=1 4 -4 -5 5 8 11 -9 -10 -11 -12 12 -14 -15
leaf_value=0.028558901065728764 -0.0028308010754375034 0.22255466898672296 -0.00044242419992926679 -0.053450454629289247 -0.17858129898889802 -0.0040977406002462571 0.24896999661075014 -0.026279606957791218 0.098162798910363919 0.22818788317940447 -0.078918226181082032 -0.2917059117853899 0.11467601823741128 -0.0025700778485769557
leaf_weight=270817 409881 6005 5300762 309908 29332 108696 11338 66185 54154 22904 8748 7417 74379 231541
leaf_count=270817 409881 6005 5300762 309908 29332 108696 11338 66185 54154 22904 8748 7417 74379 231541
internal_value=0 -0.00116258 -0.00333501 -0.0246312 0.0199026 -0.00817338 0.0399334 -0.0731017 0.0298863 0.15599 0.0435718 0.0264571 0.0777543 0.00916309
internal_weight=0 6.64125e+06 6.02055e+06 719789 620699 258367 362332 95517 162850 37657 14753 324675 81796 242879
internal_count=6912067 6641250 6020551 719789 620699 258367 362332 95517 162850 37657 14753 324675 81796 242879
is_linear=0
shrinkage=1


Tree=11
num_leaves=15
num_cat=0
split_feature=2 1 3 0 0 2 3 1 3 3 1 2 2 2
split_gain=240.903 238.29 261.097 225.191 757.815 274.421 221.791 193.782 257.266 189.979 180.359 675.462 264.992 215.023
threshold=14.500000000000002 6.5000000000000009 17.500000000000004 0.46686882273893798 0.17813743195869633 10.500000000000002 36.500000000000007 1.5000000000000002 12.500000000000002 18.500000000000004 6.5000000000000009 9.5000000000000018 9.5000000000000018 10.500000000000002
decision_type=2 2 2 2 2 2 2 2 2 2 2 2 2 2
left_child=3 2 -2 4 5 6 9 8 -5 -1 11 -6 -12 -13
right_child=1 -3 -4 7 10 -7 -8 -9 -10 -11 12 13 -14 -15
leaf_value=-0.001753022362015452 -0.020780150739758477 0.014422671507774612 -0.0020733100943262366 -0.079951296966481275 0.11082924474927344 0.016971624884626436 0.032912074640825094 0.0028334992794761807 -0.0066934924170223131 -0.042858673663041365 0.068957302865941469 -0.035196584499130074 -0.066356755819632088 0.040099504132899484
leaf_weight=211034 1122173 532930 2228034 68678 149155 538906 81702 1292410 159171 241158 27810 47931 30158 180817
leaf_count=211034 1122173 532930 2228034 68678 149155 538906 81702 1292410 159171 241158 27810 47931 30158 180817
internal_value=0 -0.00521539 -0.00834051 0.006683 0.0153388 0.00104909 -0.0150154 -0.0019042 -0.0287942 -0.0236842 0.0504999 0.0584669 -0.00137066 0.0243041
internal_weight=0 3.88314e+06 3.35021e+06 3.02893e+06 1.50867e+06 1.0728e+06 533894 1.52026e+06 227849 452192 435871 377903 57968 228748
internal_count=6912067 3883137 3350207 3028930 1508671 1072800 533894 1520259 227849 452192 435871 377903 57968 228748
is_linear=0
shrinkage=1


Tree=12
num_leaves=15
num_cat=0
split_feature=3 3 3 0 1 2 1 3 2 3 3 2 1 2
split_gain=234.658 526.219 720.17 434.867 380.118 412.783 344.077 594.378 373.854 310.728 513.658 387.655 272.264 233.041
threshold=30.500000000000004 32.500000000000007 34.500000000000007 0.43501867367834662 2.5000000000000004 20.500000000000004 1.5000000000000002 28.500000000000004 1.5000000000000002 36.500000000000007 37.500000000000007 7.5000000000000009 6.5000000000000009 13.500000000000002
decision_type=2 2 2 2 2 2 2 2 2 2 2 2 2 2
left_child=4 3 -3 12 5 6 7 13 -8 11 -11 -4 -2 -1
right_child=1 2 9 -5 -6 -7 8 -9 -10 10 -12 -13 -14 -15
leaf_value=-0.002971925503881344 -0.097491186600140875 0.049188363599772654 -0.17853803191472123 -0.007610788572589019 -0.0016850074564409034 -0.017643833061484444 -0.10466331711519983 -0.10124192771405442 0.047645563356316832 0.058645196035199951 -0.011989598932254372 -0.032175621836126392 0.018048548783861681 0.042231478158334772
leaf_weight=241789 145710 233044 19899 151894 3761512 262399 16571 45718 559571 115947 917624 201136 23646 215607
leaf_count=241789 145710 233044 19899 151894 3761512 262399 16571 45718 559571 115947 917624 201136 23646 215607
internal_value=0 -0.009787 -0.00185824 -0.0464903 0.00346843 0.0179197 0.02657 0.00745303 0.0432566 -0.0113436 -0.00406148 -0.0453758 -0.0813355 0.0183276
internal_weight=0 1.8089e+06 1.48765e+06 321250 5.10317e+06 1.34166e+06 1.07926e+06 503114 576142 1.25461e+06 1.03357e+06 221035 169356 457396
internal_count=6912067 1808900 1487650 321250 5103167 1341655 1079256 503114 576142 1254606 1033571 221035 169356 457396
is_linear=0
shrinkage=1


Tree=13
num_leaves=15
num_cat=0
split_feature=0 0 3 0 0 0 2 0 3 1 2 3 3 1
split_gain=293.421 405.694 920.471 391.177 231.762 491.562 325.899 240.409 389.387 222.303 188.334 486.658 316.199 213.504
threshold=-0.70324853421870492 -0.58882774800428106 16.500000000000004 -0.92894963586629986 0.090743938022688694 0.15271187696396898 9.5000000000000018 0.69064090964817326 26.500000000000004 3.5000000000000004 18.500000000000004 28.500000000000004 31.500000000000004 6.5000000000000009
decision_type=2 2 2 2 2 2 2 2 2 2 2 2 2 2
left_child=3 2 -2 -1 10 6 -6 8 -7 -8 13 -12 -13 -3
right_child=1 4 -4 -5 5 7 9 -9 -10 -11 11 12 -14 -15
leaf_value=-0.010526968417146353 -0.15329130721378445 0.0079008489986853916 -0.00043904794659258852 0.062265246723948599 0.033540596044481077 -0.021939681276880861 -0.10107536777120653 0.0047745650756611455 0.0081053818105240212 -0.035151143090551187 0.045521398575521614 -0.075546058899354715 0.012598690685336669 -0.033324403322048696
leaf_weight=130615 56972 968576 127848 169538 42343 1097439 87621 2695261 710448 123577 376979 61901 118624 144325
leaf_count=130615 56972 968576 127848 169538 42343 1097439 87621 2695261 710448 123577 376979 61901 118624 144325
internal_value=0 -0.00139147 -0.0475827 0.0305761 -6.24991e-05 -0.00362166 -0.0464635 -0.00120857 -0.0101306 -0.0625231 0.0100702 0.0250732 -0.0176054 0.00255083
internal_weight=0 6.61191e+06 184820 300153 6.42709e+06 4.75669e+06 253541 4.50315e+06 1.80789e+06 211198 1.6704e+06 557504 180525 1.1129e+06
internal_count=6912067 6611914 184820 300153 6427094 4756689 253541 4503148 1807887 211198 1670405 557504 180525 1112901
is_linear=0
shrinkage=1


Tree=14
num_leaves=15
num_cat=0
split_feature=3 1 2 3 2 2 2 0 1 3 3 2 0 1
split_gain=149.027 252.2 300.06 305.373 201.275 180.045 393.343 261.367 199.815 429.126 240.348 202.762 152.587 210.863
threshold=9.5000000000000018 5.5000000000000009 20.500000000000004 3.5000000000000004 3.5000000000000004 7.5000000000000009 12.500000000000002 2.8850799644596652 5.5000000000000009 14.500000000000002 14.500000000000002 21.500000000000004 2.1638974082624753 6.5000000000000009
decision_type=2 2 2 2 2 2 2 2 2 2 2 2 2 2
left_child=1 -1 4 -4 -3 7 -7 -2 10 12 -8 -11 13 -10
right_child=5 2 3 -5 -6 6 8 -9 9 11 -12 -13 -14 -15
leaf_value=0.00059211701768869965 -0.020319571692842441 0.069614960722037281 -0.0013869485325151243 0.11919620083553285 0.0024013431347964607 0.016068565626402527 -0.024467917911912555 0.10937798417339159 -0.048106965424840026 -0.00098494572766905293 0.0031021845312217571 -0.036332873573641136 -0.02451246015904392 -0.14976589145247157
leaf_weight=915841 676442 54943 31121 64168 236207 1150753 364898 15887 42639 693941 2368689 211903 45220 39415
leaf_count=915841 676442 54943 31121 64168 236207 1150753 364898 15887 42639 693941 2368689 211903 45220 39415
internal_value=0 0.00963628 0.0310597 0.0797753 0.0151004 -0.00223807 -0.000111535 -0.0173364 -0.00505575 -0.0169033 -0.000576656 -0.00925849 -0.071278 -0.0969972
internal_weight=0 1.30228e+06 386439 95289 291150 5.60979e+06 4.91746e+06 692329 3.7667e+06 1.03312e+06 2.73359e+06 905844 127274 82054
internal_count=6912067 1302280 386439 95289 291150 5609787 4917458 692329 3766705 1033118 2733587 905844 127274 82054
is_linear=0
shrinkage=1


Tree=15
num_leaves=15
num_cat=0
split_feature=3 2 2 0 0 2 2 0 3 1 0 3 3 1
split_gain=90.6824 122.069 140.748 115.919 111.498 177.41 120.288 135.244 118.448 317.527 381.37 573.11 259.545 263.077
threshold=1.5000000000000002 18.500000000000004 23.500000000000004 0.73955070535304857 1.9408973495593806 20.500000000000004 21.500000000000004 -0.30790791881181084 28.500000000000004 4.5000000000000009 1.3622569635664379 9.5000000000000018 33.500000000000007 4.5000000000000009
decision_type=2 2 2 2 2 2 2 2 2 2 2 2 2 2
left_child=3 -2 4 -1 6 -6 7 -3 9 10 -8 -12 13 -10
right_child=1 2 -4 -5 5 -7 8 -9 12 -11 11 -13 -14 -15
leaf_value=-0.053356747537972003 -0.0026572713767518607 0.024720675734693418 -0.012415977082571012 0.021528102837574652 0.075189014912025787 0.0084510698997979916 0.060597602698891015 -0.0037993017636728894 0.0017146763585364491 -0.004876237999515246 -0.27645428090680241 0.030968579003853244 0.025666364464827351 -0.11483220424631342
leaf_weight=67273 4445856 200388 345596 29744 64632 104209 250571 976087 46208 190633 8626 20314 128676 33254
leaf_count=67273 4445856 200388 345596 29744 64632 104209 250571 976087 46208 190633 8626 20314 128676 33254
internal_value=0 0.000431615 0.00622967 -0.030357 0.00941604 0.0340241 0.00717365 0.00105521 0.01778 0.0265732 0.0480362 -0.0605731 -0.00206302 -0.0470149
internal_weight=0 6.81505e+06 2.36919e+06 97017 2.0236e+06 168841 1.85476e+06 1.17648e+06 678282 470144 279511 28940 208138 79462
internal_count=6912067 6815050 2369194 97017 2023598 168841 1854757 1176475 678282 470144 279511 28940 208138 79462
is_linear=0
shrinkage=1


Tree=16
num_leaves=15
num_cat=0
split_feature=0 0 0 2 1 0 0 0 1 2 2 0 3 3
split_gain=73.2307 211.611 393.262 162.178 107.275 118.506 149.457 109.894 99.998 127.574 203.076 177.878 192.236 164.292
threshold=-1.0000000180025095e-35 0.31114771979399719 0.38184941825544499 8.5000000000000018 4.5000000000000009 0.83073047025062619 0.78617945209633999 1.2252438614587706 1.5000000000000002 17.500000000000004 11.500000000000002 1.0969428380353528 9.5000000000000018 9.5000000000000018
decision_type=2 2 2 2 2 2 2 2 2 2 2 2 2 2
left_child=3 -2 -3 -1 5 6 -4 -6 -7 10 13 -12 -13 -10
right_child=1 2 4 -5 7 8 -8 -9 9 -11 11 12 -14 -15
leaf_value=0.019632149334549896 0.014019999873865636 -0.040067096671021346 0.0019013396627362046 -0.0089488942679168387 0.0011064009262676641 0.0069896747893165145 0.0490137203649487 0.018981753290000552 -0.056295548515566597 -0.00092698852708558916 -0.0021214279073290061 0.030887868283776737 -0.068055830079882071 0.0040608436434160459
leaf_weight=226442 1130412 247759 766919 1607060 936323 303958 73836 544075 53989 459517 79903 21880 186768 273226
leaf_count=226442 1130412 247759 766919 1607060 936323 303958 73836 544075 53989 459517 79903 21880 186768 273226
internal_value=0 0.00195609 -0.00149699 -0.00541682 0.00108446 -0.0033111 0.00604396 0.0076787 -0.00901664 -0.013545 -0.0229546 -0.0422952 -0.0576601 -0.00588653
internal_weight=0 5.07856e+06 3.94815e+06 1.8335e+06 3.70039e+06 2.22e+06 840755 1.4804e+06 1.37924e+06 1.07528e+06 615766 288551 208648 327215
internal_count=6912067 5078565 3948153 1833502 3700394 2219996 840755 1480398 1379241 1075283 615766 288551 208648 327215
is_linear=0
shrinkage=1


Tree=17
num_leaves=15
num_cat=0
split_feature=3 3 0 2 1 0 0 0 0 3 0 3 2 2
split_gain=72.9725 279.419 186.877 140.143 144.854 130.495 109.836 106.907 213.029 302.072 166.044 138.505 89.6578 126.658
threshold=18.500000000000004 19.500000000000004 2.0924809649028577 15.500000000000002 1.5000000000000002 2.1406540530407772 2.5729937639913576 -0.22943294241763976 -0.056584349052819047 16.500000000000004 -0.36386931266478223 16.500000000000004 9.5000000000000018 7.5000000000000009
decision_type=2 2 2 2 2 2 2 2 2 2 2 2 2 2
left_child=7 5 -3 4 -4 -2 -5 10 9 -9 11 -1 13 -6
right_child=1 2 3 6 12 -7 -8 8 -10 -11 -12 -13 -14 -15
leaf_value=-0.0027761939016631787 -0.030631895210724961 0.00078927664452809214 0.037658933496031277 -0.032643642552937634 -0.083515090731288877 -0.14748641698844298 0.051389273342802577 -0.043896209675778723 0.0044918159190358107 0.062914367197302631 0.050164551078822242 0.056986882942017064 -0.11477742824160536 0.0399610752181448
leaf_weight=257852 234151 3827673 12552 40154 26457 9979 25378 184538 2049526 30879 119933 45617 35325 12053
leaf_count=257852 234151 3827673 12552 40154 26457 9979 25378 184538 2049526 30879 119933 45617 35325 12053
internal_value=0 -0.00259051 -0.000574934 -0.0349716 -0.0614232 -0.0354292 -3.77673e-05 0.00407438 0.00134594 -0.0285652 0.0186602 0.00619531 -0.0783236 -0.044765
internal_weight=0 4.22372e+06 3.97959e+06 151919 86387 244130 65532 2.68834e+06 2.26494e+06 215417 423402 303469 73835 38510
internal_count=6912067 4223722 3979592 151919 86387 244130 65532 2688345 2264943 215417 423402 303469 73835 38510
is_linear=0
shrinkage=1


Tree=18
num_leaves=15
num_cat=0
split_feature=0 0 3 3 3 0 0 3 2 2 3 1 2 2
split_gain=77.8916 101.718 223.338 119.899 144.746 187.079 577.312 142.435 133.035 90.6996 182.093 90.3537 72.27 94.1566
threshold=2.2077246608560963 2.4514359469110603 12.500000000000002 10.500000000000002 9.5000000000000018 2.2612419936845689 2.3130302284397972 11.500000000000002 18.500000000000004 4.5000000000000009 27.500000000000004 6.5000000000000009 18.500000000000004 15.500000000000002
decision_type=2 2 2 2 2 2 2 2 2 2 2 2 2 2
left_child=-1 2 3 4 -2 -6 -7 -5 -9 -4 -11 12 13 -3
right_child=1 11 9 7 5 6 -8 8 -10 10 -12 -13 -14 -15
leaf_value=-0.00088164887777142853 0.062136541062277284 0.0037408902884716365 0.077880215128638741 0.45103376785142013 0.26504220953287805 -0.64223297720911443 -0.016083568289055453 0.10878552988053923 0.024479873267511304 -0.072425061987881956 0.039067493582536111 -0.048779167033683214 -0.017621448801903857 0.057077205051798877
leaf_weight=6465667 16662 111913 9573 1018 1322 1810 7836 46861 31407 35781 24744 32637 77734 47102
leaf_count=6465667 16662 111913 9573 1018 1322 1810 7836 46861 31407 35781 24744 32637 77734 47102
internal_value=0 0.012776 0.0313976 0.0601638 0.00328354 -0.0857397 -0.134398 0.0799331 0.0750125 -0.0124223 -0.0267791 0.000524406 0.00733937 0.0195668
internal_weight=0 446400 177014 106916 27630 10968 9646 79286 78268 70098 60525 269386 236749 159015
internal_count=6912067 446400 177014 106916 27630 10968 9646 79286 78268 70098 60525 269386 236749 159015
is_linear=0
shrinkage=1


Tree=19
num_leaves=15
num_cat=0
split_feature=2 0 0 3 3 0 0 3 3 3 0 1 0 1
split_gain=72.643 202.591 564.914 702.312 1157.25 335.513 224.109 145.271 133.207 111.48 107.25 180.634 151.742 223.146
threshold=9.5000000000000018 1.0969428380353528 1.3015522071236594 12.500000000000002 23.500000000000004 0.83073047025062619 1.433892629611685 23.500000000000004 12.500000000000002 13.500000000000002 1.6873240232143096 2.5000000000000004 2.5340934819671306 2.5000000000000004
decision_type=2 2 2 2 2 2 2 2 2 2 2 2 2 2
left_child=1 5 3 -3 -5 -1 7 -4 -7 -10 11 -8 13 -12
right_child=-2 2 6 4 -6 8 10 -9 9 -11 12 -13 -14 -15
leaf_value=-0.0070626124972024782 0.0016082050423995848 -0.07023251552798937 -0.12519148276702577 0.31944130368754609 0.039529943062509433 -0.11597378183378121 -0.028585403899342113 -0.015521400163722639 0.17646109349074185 -0.048002223134100054 0.028058314169447728 0.068102900222842919 0.036885855601317984 -0.050909179751563498
leaf_weight=792797 5549794 22387 24033 22380 43536 33357 29974 24467 2249 98688 54064 54119 54687 105535
leaf_count=792797 5549794 22387 24033 22380 43536 33357 29974 24467 2249 98688 54064 54119 54687 105535
internal_value=0 -0.00654126 0.0112527 0.0826622 0.134653 -0.0148982 -0.00691546 -0.0699592 -0.0611224 -0.0429485 0.00332007 0.0335924 -0.0085419 -0.0241339
internal_weight=0 1.36227e+06 435182 88303 65916 927091 346879 48500 134294 100937 298379 84093 214286 159599
internal_count=6912067 1362273 435182 88303 65916 927091 346879 48500 134294 100937 298379 84093 214286 159599
is_linear=0
shrinkage=1


Tree=20
num_leaves=15
num_cat=0
split_feature=3 3 2 1 0 3 0 0 3 2 0 0 1 1
split_gain=91.2641 438.177 129.744 140.136 124.836 87.1197 82.005 162.389 70.3402 135.822 94.165 83.1181 64.7336 56.3557
threshold=6.5000000000000009 5.5000000000000009 3.5000000000000004 2.5000000000000004 0.090743938022688694 12.500000000000002 1.6873240232143096 0.63392430295670443 2.5000000000000004 19.500000000000004 0.090743938022688694 0.090743938022688694 4.5000000000000009 1.5000000000000002
decision_type=2 2 2 2 2 2 2 2 2 2 2 2 2 2
left_child=1 2 3 -1 -3 -2 7 -5 9 10 -4 -11 -10 -7
right_child=5 4 8 6 -6 13 -8 -9 12 11 -12 -13 -14 -15
leaf_value=0.081335670317546016 -0.011156138530542384 0.0961499900257093 0.051155371168426937 -0.030133336571840749 0.036181549172681661 -0.00898773869379553 -0.093494920930802111 0.082446020138453979 -0.024126941290491942 0.020729782762627439 0.005389058058572066 -0.047851404086915079 0.0013786836744179394 0.001264946523460303
leaf_weight=38047 799004 56577 69122 30014 90738 607338 7569 22311 236672 25396 129245 57580 171202 4571252
leaf_count=38047 799004 56577 69122 30014 90738 607338 7569 22311 236672 25396 129245 57580 171202 4571252
internal_value=0 0.00918982 -0.000173026 0.0338775 0.0592436 -0.00143706 0.00365699 0.0177982 -0.00501788 0.00713651 0.0213581 -0.026813 -0.0134115 6.17418e-05
internal_weight=0 934473 787158 97941 147315 5.97759e+06 59894 52325 689217 281343 198367 82976 407874 5.17859e+06
internal_count=6912067 934473 787158 97941 147315 5977594 59894 52325 689217 281343 198367 82976 407874 5178590
is_linear=0
shrinkage=1


Tree=21
num_leaves=15
num_cat=0
split_feature=0 0 2 1 3 3 2 3 0 3 0 1 3 3
split_gain=67.3207 115.747 84.5048 102.294 79.3997 181.62 275.092 100.519 119.967 127.367 83.0984 75.5687 177.323 71.4108
threshold=0.25850324142053599 0.46686882273893798 5.5000000000000009 2.5000000000000004 32.500000000000007 27.500000000000004 9.5000000000000018 24.500000000000004 1.2134268591696917 26.500000000000004 0.67548900799616163 6.5000000000000009 35.500000000000007 26.500000000000004
decision_type=2 2 2 2 2 2 2 2 2 2 2 2 2 2
left_child=-1 2 3 -2 5 7 10 -3 13 -10 -7 -6 -13 -9
right_child=1 4 -4 -5 11 6 -8 8 9 -11 -12 12 -14 -15
leaf_value=-0.0038474746155416576 0.093732050265550801 0.0012966080028095129 0.010346288236196644 0.01666815205227477 -0.012610368416825727 -0.097534254162265216 0.032080459710296591 -0.052272152156248169 0.022054958038577824 -0.082103580592779266 -0.016627379049611771 -0.060061234267056125 0.033251110257907418 0.0049562252821564925
leaf_weight=2741361 27972 1943587 661992 45245 691283 16253 375884 104761 78864 13779 58789 25589 99332 27376
leaf_count=2741361 27972 1943587 661992 45245 691283 16253 375884 104761 78864 13779 58789 25589 99332 27376
internal_value=0 0.00253207 0.0139198 0.046171 9.38607e-05 0.00277864 0.021039 -0.00101693 -0.0210384 0.00651466 -0.0342119 -0.00851695 0.0141024 -0.0403858
internal_weight=0 4.17071e+06 735209 73217 3.4355e+06 2.61929e+06 450926 2.16837e+06 224780 92643 75042 816204 124921 132137
internal_count=6912067 4170706 735209 73217 3435497 2619293 450926 2168367 224780 92643 75042 816204 124921 132137
is_linear=0
shrinkage=1


Tree=22
num_leaves=15
num_cat=0
split_feature=0 0 2 0 0 2 2 1 3 3 0 3 2 0
split_gain=75.9874 201.013 62.2674 41.6589 112.299 101.216 128.776 96.5874 47.4056 482.74 129.889 126.13 77.6754 72.2554
threshold=-1.0643158929353036 -0.92894963586629986 2.5000000000000004 -0.80974412414380081 -0.70324853421870492 17.500000000000004 10.500000000000002 1.5000000000000002 22.500000000000004 23.500000000000004 1.668649327905962 21.500000000000004 10.500000000000002 1.0969428380353528
decision_type=2 2 2 2 2 2 2 2 2 2 2 2 2 2
left_child=2 -2 -1 5 -5 6 -3 -8 11 10 12 -6 -10 -14
right_child=1 3 -4 4 8 -7 7 -9 9 -11 -12 -13 13 -15
leaf_value=0.13469364186402935 -0.080139477156769418 0.017156431244697394 0.021565284548042549 0.046508050281409877 -0.001114679351506813 0.019588480857963941 0.055100235223073599 -0.086562270622186813 0.0086522316296380568 -0.00067589785538354217 0.1384854391209992 -0.026416251714185206 0.060949434435343994 -0.00092379446700410089
leaf_weight=5143 31460 24948 94012 52174 3152154 43370 5368 43678 55509 3023152 14610 210193 134489 21807
leaf_count=5143 31460 24948 94012 52174 3152154 43370 5368 43678 55509 3023152 14610 210193 134489 21807
internal_value=0 -0.000399554 0.0274831 -2.89522e-05 0.000299386 -0.0187054 -0.0412043 -0.07097 -6.46892e-05 0.00265839 0.0471949 -0.00269762 0.0408742 0.0522914
internal_weight=0 6.81291e+06 99155 6.78145e+06 6.66409e+06 117364 73994 49046 6.61191e+06 3.24957e+06 226415 3.36235e+06 211805 156296
internal_count=6912067 6812912 99155 6781452 6664088 117364 73994 49046 6611914 3249567 226415 3362347 211805 156296
is_linear=0
shrinkage=1


Tree=23
num_leaves=15
num_cat=0
split_feature=2 1 0 0 3 3 0 1 0 0 2 3 2 3
split_gain=42.6182 85.457 83.6441 123.874 116.148 118.056 102.48 69.5749 107.718 155.651 63.0331 72.3765 67.2888 54.0266
threshold=16.500000000000004 6.5000000000000009 1.7056563577016244 1.433892629611685 24.500000000000004 11.500000000000002 1.282320808903427 1.5000000000000002 1.0664319090879151 1.1832585901438895 20.500000000000004 26.500000000000004 21.500000000000004 34.500000000000007
decision_type=2 2 2 2 2 2 2 2 2 2 2 2 2 2
left_child=-1 2 3 4 5 7 -6 -2 -9 -10 11 -3 -12 -4
right_child=1 10 13 -5 6 -7 -8 8 9 -11 12 -13 -14 -15
leaf_value=0.0022746442868827182 0.031800100063715281 0.013996676166243968 0.015989825981660585 -0.039023962642747573 0.00073467300569806 -0.018976463441903835 0.053873234588449406 -0.0093699643100288738 0.12936513891118528 -0.00042069782763157069 0.050882930127010055 -0.022338167350262284 0.01128606928392192 -0.020257232180646591
leaf_weight=3761412 63699 130464 269294 113745 988340 800198 37677 355843 14205 26240 60809 94519 147186 48436
leaf_count=3761412 63699 130464 269294 113745 988340 800198 37677 355843 14205 26240 60809 94519 147186 48436
internal_value=0 -0.00271105 -0.00479083 -0.00681043 -0.00520584 -0.0116379 0.00269028 0.00111985 -0.00380208 0.045079 0.0103338 -0.00125064 0.0228832 0.0104512
internal_weight=0 3.15066e+06 2.71768e+06 2.39995e+06 2.2862e+06 1.26018e+06 1.02602e+06 459987 396288 40445 432978 224983 207995 317730
internal_count=6912067 3150655 2717677 2399947 2286202 1260185 1026017 459987 396288 40445 432978 224983 207995 317730
is_linear=0
shrinkage=1


Tree=24
num_leaves=15
num_cat=0
split_feature=0 0 2 0 0 0 0 3 0 3 2 1 0 2
split_gain=37.7884 153.674 36.2979 105.108 74.9431 98.9967 73.9582 127.114 73.0352 64.7347 63.0596 62.4264 301.252 89.6665
threshold=2.7716507335919962 2.8567574800002906 10.500000000000002 1.9408973495593806 2.0924809649028577 2.2219170430416324 1.985817204114581 9.5000000000000018 -0.39307002370455485 8.5000000000000018 8.5000000000000018 2.5000000000000004 -0.11094716595688887 8.5000000000000018
decision_type=2 2 2 2 2 2 2 2 2 2 2 2 2 2
left_child=2 -2 3 8 6 -6 -4 -8 9 -1 -5 -10 -13 -14
right_child=1 -3 4 10 5 -7 7 -9 11 -11 -12 12 13 -15
leaf_value=-0.061534730965011747 -0.063993960638461161 0.0036546642320325418 0.0021966429914664319 0.011103755450957299 -0.048481363004918822 -0.0034925536920402778 -0.1205520802292922 0.059239968992810157 0.0068638332823845348 -0.014973477154409524 0.062668929150309027 0.041370443347689703 -0.0060291838724263521 -0.0272162391185857
leaf_weight=38601 46115 123133 4788689 98278 65483 194136 4319 41973 402538 133658 31377 109213 502143 332411
leaf_count=38601 46115 123133 4788689 98278 65483 194136 4319 41973 402538 133658 31377 109213 502143 332411
internal_value=0 -0.0147559 0.000372399 -0.00370596 0.00169263 -0.0148564 0.0025821 0.0423623 -0.00604149 -0.0254327 0.0236165 -0.0035573 -0.0080064 -0.0144732
internal_weight=0 169248 6.74282e+06 1.64822e+06 5.0946e+06 259619 4.83498e+06 46292 1.51856e+06 172259 129655 1.3463e+06 943767 834554
internal_count=6912067 169248 6742819 1648219 5094600 259619 4834981 46292 1518564 172259 129655 1346305 943767 834554
is_linear=0
shrinkage=1


Tree=25
num_leaves=15
num_cat=0
split_feature=1 1 2 3 3 0 3 0 2 0 0 0 2 3
split_gain=39.275 51.2411 73.9039 92.6093 88.1589 190.856 76.0279 650.849 77.5745 77.3467 62.5041 61.3286 134.151 59.9025
threshold=3.5000000000000004 6.5000000000000009 16.500000000000004 15.500000000000002 12.500000000000002 1.7056563577016244 11.500000000000002 2.0021552197590604 8.5000000000000018 1.8091077721813849 2.0924809649028577 0.40212061403276617 10.500000000000002 4.5000000000000009
decision_type=2 2 2 2 2 2 2 2 2 2 2 2 2 2
left_child=-1 2 3 4 6 -6 11 8 -8 -10 -9 12 -2 -14
right_child=1 -3 -4 -5 5 -7 7 10 9 -11 -12 -13 13 -15
leaf_value=-0.0027620554775405963 -0.027378133455613039 -0.0043391041258274334 -0.0011788351618520127 0.0036077499155711193 0.053958608684012414 -0.10853868861507135 -0.17953647652517932 -0.15338733317516803 -0.59560507243561167 -0.25228422258782968 0.031252493195950581 0.030235538632874481 0.00013290800951600097 0.05189451201840016
leaf_weight=2951471 76712 951124 1414799 1096652 113188 7699 1287 1945 2020 1069 28886 173965 39826 51424
leaf_count=2951471 76712 951124 1414799 1096652 113188 7699 1287 1945 2020 1069 28886 173965 39826 51424
internal_value=0 0.002057 0.00407978 0.00874773 0.0200578 0.0435704 0.0125097 -0.0316937 -0.392285 -0.478984 0.0194402 0.0170735 0.00341651 0.0293489
internal_weight=0 3.9606e+06 3.00947e+06 1.59467e+06 498021 120887 377134 35207 4376 3089 30831 341927 167962 91250
internal_count=6912067 3960596 3009472 1594673 498021 120887 377134 35207 4376 3089 30831 341927 167962 91250
is_linear=0
shrinkage=1


Tree=26
num_leaves=15
num_cat=0
split_feature=2 1 1 1 0 3 0 0 2 0 2 1 0 3
split_gain=29.5201 131.369 271.673 121.83 202.94 66.5702 56.4471 59.5749 254.768 190.099 323.295 423.263 44.7092 235.677
threshold=22.500000000000004 4.5000000000000009 2.5000000000000004 5.5000000000000009 1.336315127935475 9.5000000000000018 -0.50256097279038536 -0.2549130617164535 17.500000000000004 -0.39307002370455485 10.500000000000002 1.5000000000000002 1.3622569635664379 9.5000000000000018
decision_type=2 2 2 2 2 2 2 2 2 2 2 2 2 2
left_child=6 2 -2 4 -3 -6 -1 8 9 -8 -11 -12 -4 -14
right_child=1 3 12 -5 5 -7 7 -9 -10 10 11 -13 13 -15
leaf_value=0.0082034827578691179 -0.015484085441271117 -0.062192130989459186 0.044578588598473926 0.0043147501183454263 0.16012391894705519 0.019118617140735879 0.013755966459327152 -0.00081918865140154771 0.022428497491369447 0.0078447738042287628 0.079481520366099831 -0.097613729376634858 -0.13596977880184791 0.04053325195767201
leaf_weight=637184 153980 78498 201299 209550 4072 19256 69566 5150500 132219 69774 15282 113722 8961 48204
leaf_count=637184 153980 78498 201299 209550 4072 19256 69566 5150500 132219 69774 15282 113722 8961 48204
internal_value=0 0.00603957 0.0177483 -0.00945689 -0.0378354 0.0439466 -0.000709774 -0.00173362 -0.0134813 -0.0311899 -0.0469396 -0.0766004 0.0375619 0.012781
internal_weight=0 723820 412444 311376 101826 23328 6.18825e+06 5.55106e+06 400563 268344 198778 129004 258464 57165
internal_count=6912067 723820 412444 311376 101826 23328 6188247 5551063 400563 268344 198778 129004 258464 57165
is_linear=0
shrinkage=1


Tree=27
num_leaves=15
num_cat=0
split_feature=0 0 0 2 2 2 3 0 0 2 2 1 1 3
split_gain=31.2502 64.7473 50.8 48.1374 37.9253 34.8699 31.982 35.6002 46.3556 172.889 47.3534 88.2256 151.646 37.1509
threshold=-0.36386931266478223 -0.34958262644275417 -0.50256097279038536 18.500000000000004 22.500000000000004 17.500000000000004 14.500000000000002 -0.035640601002481863 0.044005438661356693 9.5000000000000018 1.5000000000000002 1.5000000000000002 5.5000000000000009 28.500000000000004
decision_type=2 2 2 2 2 2 2 2 2 2 2 2 2 2
left_child=2 5 4 -4 -1 -2 -3 -8 9 -9 11 13 -13 -10
right_child=1 6 3 -5 -6 -7 7 8 10 -11 -12 12 -14 -15
leaf_value=9.6560993948791291e-08 0.0088531433916414493 -0.0033158274443895771 -0.009856486267435155 -0.048363274927168298 -0.028044171157268441 0.038993574436634551 0.0091606658580992359 -0.081043893317912424 0.10762785101036368 -0.0015624517251819068 0.00073063366065056069 -0.023569300322296351 0.051338096450165481 0.031702524601765217
leaf_weight=637184 100445 1764488 98901 48595 52137 62596 562903 32343 13816 178416 3236383 65395 46021 12444
leaf_count=637184 100445 1764488 98901 48595 52137 62596 562903 32343 13816 178416 3236383 65395 46021 12444
internal_value=0 0.000792134 -0.00572612 -0.0225721 -0.00211552 0.0204507 0.000249308 0.00176692 0.000604796 -0.0137811 0.00150462 0.0196687 0.00733709 0.0718202
internal_weight=0 6.07525e+06 836817 147496 689321 163041 5.91221e+06 4.14772e+06 3.58482e+06 210759 3.37406e+06 137676 111416 26260
internal_count=6912067 6075250 836817 147496 689321 163041 5912209 4147721 3584818 210759 3374059 137676 111416 26260
is_linear=0
shrinkage=1


Tree=28
num_leaves=15
num_cat=0
split_feature=3 3 0 3 0 0 0 0 2 0 1 2 3 2
split_gain=44.0878 251.931 632.719 166.205 1601.91 377.759 179.177 126.797 75.9291 71.1378 69.0845 68.7158 66.8292 122.753
threshold=11.500000000000002 10.500000000000002 1.1489872402181815 12.500000000000002 1.4386488878711055 0.46686882273893798 2.1406540530407772 2.4514359469110603 16.500000000000004 1.1615858633012173 5.5000000000000009 10.500000000000002 9.5000000000000018 10.500000000000002
decision_type=2 2 2 2 2 2 2 2 2 2 2 2 2 2
left_child=1 12 11 4 5 -2 8 -4 -6 -7 -8 -3 -1 -14
right_child=3 2 7 -5 6 9 10 -9 -10 -11 -12 -13 13 -15
leaf_value=0.0038741101880411348 -0.0041742877188182459 -0.031395825639878035 0.21761250049943598 -0.00030421072203390187 -0.11920830103963981 -0.59504025950758643 0.020857697026649125 0.59342307618931123 -0.029519465927242798 -0.40479289836580851 -0.034158008359068175 0.036696357755675563 0.027520385244329208 -0.035253830548984323
leaf_weight=1302280 1877 20259 14206 5178590 16599 4302 106532 970 22252 4198 29002 54718 42870 113412
leaf_count=1302280 1877 20259 14206 5178590 16599 4302 106532 970 22252 4198 29002 54718 42870 113412
internal_value=0 0.00470051 0.0560007 -0.0013565 -0.0308276 -0.412398 -0.00808211 0.242178 -0.0679574 -0.50199 0.00905451 0.018243 0.00152666 -0.018008
internal_weight=0 1.54872e+06 90153 5.36335e+06 184762 10377 174385 15176 38851 8500 135534 74977 1.45856e+06 156282
internal_count=6912067 1548715 90153 5363352 184762 10377 174385 15176 38851 8500 135534 74977 1458562 156282
is_linear=0
shrinkage=1


Tree=29
num_leaves=15
num_cat=0
split_feature=2 2 3 0 0 3 2 0 0 3 3 0 3 1
split_gain=21.7374 109.887 78.88 78.6315 184.247 168.901 110.951 124.089 98.2949 106.077 113.415 93.9943 69.4686 61.6147
threshold=7.5000000000000009 5.5000000000000009 2.5000000000000004 1.2711630703277434 1.0969428380353528 16.500000000000004 9.5000000000000018 1.1615858633012173 1.1832585901438895 9.5000000000000018 10.500000000000002 1.0490703095561604 10.500000000000002 6.5000000000000009
decision_type=2 2 2 2 2 2 2 2 2 2 2 2 2 2
left_child=1 2 -1 4 11 8 -7 -8 9 -6 -11 -2 -10 -4
right_child=3 -3 13 -5 5 6 7 -9 12 10 -12 -13 -14 -15
leaf_value=-0.044283987876207763 -8.4407057150715834e-05 -0.031584046861571506 -0.0026745355676384879 0.0085530666402516605 0.08748209968417503 0.039663437739196276 -0.082970239076025007 -0.028196096802220749 -0.06034992214940179 -0.46224259913258142 -0.00050151522459426399 0.036110097624214202 0.033831825901855128 0.018907594115274116
leaf_weight=38595 4581635 128965 605795 1051260 24847 15030 68337 105641 21646 544 15518 72880 12205 169169
leaf_count=38595 4581635 128965 605795 1051260 24847 15030 68337 105641 21646 544 15518 72880 12205 169169
internal_value=0 -0.00446507 -0.00016101 0.000702534 -0.000974678 -0.0266856 -0.0426049 -0.0497365 0.0135085 0.0465243 -0.0165975 0.000481521 -0.0262745 0.00203166
internal_weight=0 942524 813559 5.96954e+06 4.91828e+06 263768 189008 173978 74760 40909 16062 4.65452e+06 33851 774964
internal_count=6912067 942524 813559 5969543 4918283 263768 189008 173978 74760 40909 16062 4654515 33851 774964
is_linear=0
shrinkage=1


Tree=30
num_leaves=15
num_cat=0
split_feature=0 1 0 2 0 3 3 0 3 0 2 0 3 3
split_gain=16.1967 17.9386 34.9784 30.1729 26.4977 24.3787 31.9766 32.682 49.1281 29.6438 28.2845 25.2274 29.78 34.3653
threshold=3.1304816502380368 5.5000000000000009 -0.18034148266813563 18.500000000000004 3.019204599922253 1.5000000000000002 3.5000000000000004 0.21912746546557765 7.5000000000000009 0.17813743195869633 21.500000000000004 0.090743938022688694 16.500000000000004 34.500000000000007
decision_type=2 2 2 2 2 2 2 2 2 2 2 2 2 2
left_child=1 2 3 -1 -4 10 -7 9 -9 11 -3 -8 -13 -14
right_child=-2 5 4 -5 -6 6 7 8 -10 -11 -12 12 13 -15
leaf_value=-0.00064851993478476778 0.037564875940675868 -0.020531767968496106 0.0024236023560535629 -0.012518028447321992 -0.038870786026680378 0.014501085506167098 0.0025870450734390917 -0.027217914682527287 -0.0044568981637416738 0.024767346888570976 -0.12219819210668542 -0.048679001708843664 0.0089902917942373123 -0.048621456000114686
leaf_weight=687208 11450 25016 3970265 311644 15582 107646 559702 105065 983825 53381 3097 21122 43504 13560
leaf_count=687208 11450 25016 3970265 311644 15582 107646 559702 105065 983825 53381 3097 21122 43504 13560
internal_value=0 -6.46408e-05 0.000934348 -0.0043559 0.00226109 -0.00266582 -0.00222817 -0.00324209 -0.00665691 0.00213118 -0.0319035 0.000230352 -0.0165877 -0.00463437
internal_weight=0 6.90062e+06 4.9847e+06 998852 3.98585e+06 1.91592e+06 1.8878e+06 1.78016e+06 1.08889e+06 691269 28113 637888 78186 57064
internal_count=6912067 6900617 4984699 998852 3985847 1915918 1887805 1780159 1088890 691269 28113 637888 78186 57064
is_linear=0
shrinkage=1


Tree=31
num_leaves=15
num_cat=0
split_feature=0 0 2 3 2 2 2 1 1 1 3 2 2 1
split_gain=14.1059 56.2293 71.2345 55.3455 126.124 61.3539 53.5028 49.1087 37.3615 59.3107 93.9601 33.3696 30.1328 28.1794
threshold=2.2077246608560963 2.5729937639913576 6.5000000000000009 9.5000000000000018 8.5000000000000018 10.500000000000002 14.500000000000002 2.5000000000000004 2.5000000000000004 6.5000000000000009 10.500000000000002 15.500000000000002 19.500000000000004 6.5000000000000009
decision_type=2 2 2 2 2 2 2 2 2 2 2 2 2 2
left_child=-1 12 13 4 7 8 -7 -4 -5 10 -10 -6 -2 -3
right_child=1 2 3 5 11 6 -8 -9 9 -11 -12 -13 -14 -15
leaf_value=0.00037337719773538274 -0.023305374771324605 -0.056213975488092406 0.060688968544496347 -0.0039903167792800934 0.053532015913934507 -0.037771172620548944 0.010033552520825953 -0.34549946666021514 0.17569694683376263 -0.041923195869395254 0.022553033693941054 0.17652161195180341 0.0027901075015673189 0.021776655197607055
leaf_weight=6465667 167962 22891 427 8274 3985 28920 122691 860 8274 3478 7896 5304 59718 5720
leaf_count=6465667 167962 22891 427 8274 3985 28920 122691 860 8274 3478 7896 5304 59718 5720
internal_value=0 -0.00543871 0.00599865 0.013016 0.0833344 0.00884808 0.000886938 -0.208074 0.0519205 0.0756612 0.101207 0.124275 -0.0164434 -0.0404805
internal_weight=0 446400 218720 190109 10576 179533 151611 1287 27922 19648 16170 9289 227680 28611
internal_count=6912067 446400 218720 190109 10576 179533 151611 1287 27922 19648 16170 9289 227680 28611
is_linear=0
shrinkage=1


Tree=32
num_leaves=15
num_cat=0
split_feature=0 0 2 0 2 1 1 0 2 3 3 3 3 3
split_gain=21.1858 67.6483 84.9616 56.1157 48.8947 146.251 109.358 112.443 102.6 85.744 81.2581 73.4533 57.2548 52.1936
threshold=0.72027288797590339 0.62325745929580278 6.5000000000000009 0.83073047025062619 2.5000000000000004 1.5000000000000002 1.5000000000000002 0.58500114237739143 13.500000000000002 11.500000000000002 16.500000000000004 26.500000000000004 3.5000000000000004 17.500000000000004
decision_type=2 2 2 2 2 2 2 2 2 2 2 2 2 2
left_child=1 4 -3 -2 5 9 8 -8 -6 12 -11 -7 -1 -12
right_child=3 2 -4 -5 6 11 7 -9 -10 10 13 -13 -14 -15
leaf_value=-0.012585740113852184 0.015314663678211552 0.029304896549273322 -0.021793142196720829 0.00060098566635471984 -0.036073837030336481 -0.013382307510397713 0.0013591810224870674 0.032241935834642091 -0.0032323834451109734 -0.15009430917204761 0.1905577407552014 -0.056818248202362281 0.12444993183515804 0.0092937501871112587
leaf_weight=3950 292451 36919 270590 2286121 145713 111688 3260836 122334 274887 3108 1678 60050 12621 29121
leaf_count=3950 292451 36919 270590 2286121 145713 111688 3260836 122334 274887 3108 1678 60050 12621 29121
internal_value=0 -0.00134873 -0.0156448 0.00227134 -0.000255757 -0.0146745 0.00058556 0.00247714 -0.01462 0.0326051 0.00366449 -0.0285952 0.0915528 0.0193433
internal_weight=0 4.3335e+06 307509 2.57857e+06 4.02599e+06 222216 3.80377e+06 3.38317e+06 420600 50478 33907 171738 16571 30799
internal_count=6912067 4333495 307509 2578572 4025986 222216 3803770 3383170 420600 50478 33907 171738 16571 30799
is_linear=0
shrinkage=1


Tree=33
num_leaves=15
num_cat=0
split_feature=2 1 1 2 2 3 3 0 3 2 2 2 3 0
split_gain=38.8911 37.4964 89.2673 140.567 75.8847 154.3 310.455 175.637 91.5966 74.1909 92.305 61.7086 43.7355 39.2607
threshold=14.500000000000002 4.5000000000000009 2.5000000000000004 21.500000000000004 20.500000000000004 28.500000000000004 22.500000000000004 0.73955070535304857 37.500000000000007 15.500000000000002 21.500000000000004 22.500000000000004 25.500000000000004 1.0664319090879151
decision_type=2 2 2 2 2 2 2 2 2 2 2 2 2 2
left_child=-1 2 9 4 5 6 -4 8 -7 -2 -11 -12 -3 -6
right_child=1 12 3 -5 13 7 -8 -9 -10 10 11 -13 -14 -15
leaf_value=0.0026864559411818229 -0.023008165444883408 0.0060365045280283691 -0.0097921550283811051 0.0057022099070472764 -0.028829938194491804 0.035721865501279593 -0.069188145060665687 -0.03242470743910876 -0.013819955241857947 0.011767200329649844 -0.032318529800579879 0.00088292594394936866 -0.004697872081472626 -0.068313850402316287
leaf_weight=3028930 101817 933385 389888 397594 115969 142391 113734 82314 50433 642047 87749 153980 639349 32487
leaf_count=3028930 101817 933385 389888 397594 115969 142391 113734 82314 50433 642047 87749 153980 639349 32487
internal_value=0 -0.00209425 -0.00465852 -0.0100205 -0.0167667 -0.0128088 -0.0232144 0.00622363 0.0227435 0.00254483 0.00549341 -0.0111535 0.00167021 -0.0375003
internal_weight=0 3.88314e+06 2.3104e+06 1.32481e+06 927216 778760 503622 275138 192824 985593 883776 241729 1.57273e+06 148456
internal_count=6912067 3883137 2310403 1324810 927216 778760 503622 275138 192824 985593 883776 241729 1572734 148456
is_linear=0
shrinkage=1


Tree=34
num_leaves=15
num_cat=0
split_feature=3 0 3 2 3 3 0 3 3 0 0 2 3 3
split_gain=40.8098 32.3111 73.2116 298.459 66.5456 60.4289 102.389 90.9897 95.2612 63.9975 134.101 101.242 61.9448 331.164
threshold=17.500000000000004 0.67548900799616163 15.500000000000002 8.5000000000000018 7.5000000000000009 16.500000000000004 1.433892629611685 12.500000000000002 13.500000000000002 0.83073047025062619 1.0969428380353528 9.5000000000000018 9.5000000000000018 10.500000000000002
decision_type=2 2 2 2 2 2 2 2 2 2 2 2 2 2
left_child=1 2 -1 -4 -3 6 7 12 9 -9 11 -11 -6 -14
right_child=-2 4 3 -5 5 -7 -8 8 -10 10 -12 -13 13 -15
leaf_value=-0.0045792749177018133 0.0017740765954960644 -0.0099147824250766393 0.069614580959140582 -0.065248957292315793 0.020563607839464888 -0.027317157933316787 -0.00023601993235462969 0.012727475575428674 0.026747140079733361 -0.012879845681471609 0.035468641454775539 0.21739298491651821 -0.31599156988660509 0.0024359166466246334
leaf_weight=1254724 4505139 374607 21357 70478 50832 48576 408022 8888 113069 2249 12360 11508 3713 26545
leaf_count=1254724 4505139 374607 21357 70478 50832 48576 408022 8888 113069 2249 12360 11508 3713 26545
internal_value=0 -0.00332627 -0.0065779 -0.0338386 0.00079921 0.00665775 0.00925441 0.0261688 0.0409145 0.0865463 0.111504 0.179471 -0.000709312 -0.0365752
internal_weight=0 2.40693e+06 1.34656e+06 91835 1.06037e+06 685762 637186 229164 148074 35005 26117 13757 81090 30258
internal_count=6912067 2406928 1346559 91835 1060369 685762 637186 229164 148074 35005 26117 13757 81090 30258
is_linear=0
shrinkage=1


Tree=35
num_leaves=15
num_cat=0
split_feature=1 2 2 2 0 3 3 3 3 3 3 3 0 3
split_gain=16.2116 32.4928 28.8389 43.6942 36.8509 36.7059 36.8635 33.5546 31.7169 115.926 111.103 48.5381 54.6503 52.5751
threshold=5.5000000000000009 7.5000000000000009 15.500000000000002 17.500000000000004 1.3283995055457078 28.500000000000004 23.500000000000004 32.500000000000007 28.500000000000004 24.500000000000004 31.500000000000004 23.500000000000004 0.4855030820314819 16.500000000000004
decision_type=2 2 2 2 2 2 2 2 2 2 2 2 2 2
left_child=-1 -2 -3 4 5 6 -4 -7 9 11 -10 13 -13 -5
right_child=1 2 3 8 -6 7 -8 -9 10 -11 -12 12 -14 -15
leaf_value=0.0009499887159395762 0.0069877178513390991 -0.0095755950869204007 0.003298116158150388 -0.012619480022951345 0.043059381925236777 0.047720359959128572 -0.044818490005559805 0.0037440074424683312 -0.046547033278847127 0.035196786911485978 -0.00050190787045190782 -0.11892736841156777 0.0016650774140657722 0.010598310187217802
leaf_weight=4992965 305182 625410 88318 269854 32173 32311 19389 37932 72685 79938 188396 7949 6999 152566
leaf_count=4992965 305182 625410 88318 269854 32173 32311 19389 37932 72685 79938 188396 7949 6999 152566
internal_value=0 -0.00246971 -0.00426055 -0.000893734 0.0118972 0.00623903 -0.00532903 0.0240325 -0.00435181 0.000175435 -0.0133372 -0.00621679 -0.0622232 -0.00422437
internal_weight=0 1.9191e+06 1.61392e+06 988510 210123 177950 107707 70243 778387 517306 261081 437368 14948 422420
internal_count=6912067 1919102 1613920 988510 210123 177950 107707 70243 778387 517306 261081 437368 14948 422420
is_linear=0
shrinkage=1


Tree=36
num_leaves=15
num_cat=0
split_feature=0 0 3 2 3 3 2 0 3 0 2 2 3 0
split_gain=23.0696 55.6593 53.03 100.863 82.3762 70.3841 50.6362 46.683 44.6188 44.1522 37.7557 37.6688 33.1855 33.7775
threshold=0.090743938022688694 0.062963778298895365 23.500000000000004 10.500000000000002 4.5000000000000009 29.500000000000004 15.500000000000002 -0.70324853421870492 25.500000000000004 -0.6832458669118554 17.500000000000004 9.5000000000000018 21.500000000000004 -1.0000000180025095e-35
decision_type=2 2 2 2 2 2 2 2 2 2 2 2 2 2
left_child=1 2 3 4 -1 8 7 -5 -4 -8 -10 -3 13 -9
right_child=-2 11 5 6 -6 -7 9 12 10 -11 -12 -13 -14 -15
leaf_value=0.021895514021377373 -0.0012281234219366822 -0.025306546694034048 0.00069768840131696579 -0.0081532450578916619 -0.020693875840680897 0.0029390858160153509 0.025077655423953359 0.017502635163729869 -0.012165674074951992 0.0018838123871095958 -0.038039346116552984 0.047052691994252681 0.054407586997544048 0.052863514846445421
leaf_weight=59095 4756689 8543 124910 43084 195218 637584 100662 190308 139991 447030 95216 43368 38694 31675
leaf_count=59095 4756689 8543 124910 43084 195218 637584 100662 190308 139991 447030 95216 43368 38694 31675
internal_value=0 0.00271562 0.00191524 0.00668581 -0.0107812 -0.00336804 0.0119076 0.0222676 -0.0145457 0.00615427 -0.0226577 0.0350655 0.0273109 0.022568
internal_weight=0 2.15538e+06 2.10347e+06 1.10577e+06 254313 997701 851453 303761 360117 547692 235207 51911 260677 221983
internal_count=6912067 2155378 2103467 1105766 254313 997701 851453 303761 360117 547692 235207 51911 260677 221983
is_linear=0
shrinkage=1


Tree=37
num_leaves=15
num_cat=0
split_feature=0 0 0 3 3 1 3 2 0 2 0 0 3 2
split_gain=13.1537 34.2332 18.9072 21.6633 31.4348 20.2825 28.4865 42.1232 28.2315 85.7203 52.4778 22.3829 38.6446 46.4102
threshold=0.93412872010039016 0.98767899406825665 1.02424626176791 2.5000000000000004 3.5000000000000004 4.5000000000000009 12.500000000000002 20.500000000000004 1.433892629611685 3.5000000000000004 1.2134268591696917 1.4827396151914853 9.5000000000000018 21.500000000000004
decision_type=2 2 2 2 2 2 2 2 2 2 2 2 2 2
left_child=-1 -2 -3 -4 -5 8 7 -7 9 -6 -11 -9 13 -13
right_child=1 2 3 4 5 6 -8 11 -10 10 -12 12 -14 -15
leaf_value=-0.00087749978859750805 0.019268220130299645 -0.013606160711603898 -0.01610993074162188 0.032745733747145005 -0.030473022520523772 0.01656122111541912 -0.0065796491726245214 -0.05106152283626713 0.00066019807000385934 0.0054207710517906399 0.030321338208088744 -0.1096429699917081 -0.02127371689810547 0.086443420708002663
leaf_weight=4914908 110583 82821 64743 33732 43188 144377 473298 13815 649865 186235 155870 1421 29859 7352
leaf_count=4914908 110583 82821 64743 33732 43188 144377 473298 13815 649865 186235 155870 1421 29859 7352
internal_value=0 0.00216593 0.00116128 0.00184161 0.00251231 0.00191177 -0.00237061 0.00773032 0.00468789 0.0114708 0.0167781 -0.0165022 -0.00403256 0.0541604
internal_weight=0 1.99716e+06 1.88658e+06 1.80376e+06 1.73901e+06 1.70528e+06 670122 196824 1.03516e+06 385293 342105 52447 38632 8773
internal_count=6912067 1997159 1886576 1803755 1739012 1705280 670122 196824 1035158 385293 342105 52447 38632 8773
is_linear=0
shrinkage=1


Tree=38
num_leaves=15
num_cat=0
split_feature=1 2 3 3 2 2 3 2 3 3 0 2 3 0
split_gain=14.5961 28.694 42.3338 74.988 49.0949 35.0114 25.1644 79.4052 47.6935 34.1175 24.2824 43.0166 29.9287 29.7554
threshold=3.5000000000000004 12.500000000000002 28.500000000000004 24.500000000000004 18.500000000000004 17.500000000000004 16.500000000000004 21.500000000000004 10.500000000000002 3.5000000000000004 0.46686882273893798 10.500000000000002 27.500000000000004 0.55675045058093031
decision_type=2 2 2 2 2 2 2 2 2 2 2 2 2 2
left_child=1 10 3 5 -5 -3 8 -8 9 -7 11 -1 -13 -12
right_child=-2 2 -4 4 -6 6 7 -9 -10 -11 13 12 -14 -15
leaf_value=0.014178284954139666 0.0012538079362682264 -0.010843981305602199 -0.010543816611594111 -0.00045546698679004911 0.031554538794308813 -0.013835845970089149 0.021880129428047252 -0.013253941028037714 -0.018417545738153369 0.012378651912049739 -0.02550961665145034 0.0049017646271662984 -0.023911142124637359 0.00033300639292580257
leaf_weight=329817 3960596 432034 647822 85145 108858 71117 164667 105414 149374 163841 48952 93757 58407 492266
leaf_count=329817 3960596 432034 647822 85145 108858 71117 164667 105414 149374 163841 48952 93757 58407 492266
internal_value=0 -0.00168399 -0.0039561 -0.000619989 0.0174857 -0.00385684 0.000749922 0.00815232 -0.00444161 0.00442685 0.00259399 0.00775786 -0.0061322 -0.00199733
internal_weight=0 2.95147e+06 1.92827e+06 1.28045e+06 194003 1.08645e+06 654413 270081 384332 234958 1.0232e+06 481981 152164 541218
internal_count=6912067 2951471 1928272 1280450 194003 1086447 654413 270081 384332 234958 1023199 481981 152164 541218
is_linear=0
shrinkage=1


Tree=39
num_leaves=15
num_cat=0
split_feature=3 3 2 0 3 3 2 3 1 3 2 3 2 2
split_gain=14.7847 22.227 70.0235 59.7959 169.709 58.0917 45.1602 40.8176 40.1574 35.7539 149.869 134.518 141.305 86.479
threshold=26.500000000000004 30.500000000000004 8.5000000000000018 1.3622569635664379 28.500000000000004 31.500000000000004 23.500000000000004 28.500000000000004 6.5000000000000009 28.500000000000004 20.500000000000004 27.500000000000004 11.500000000000002 19.500000000000004
decision_type=2 2 2 2 2 2 2 2 2 2 2 2 2 2
left_child=-1 2 3 4 -2 8 9 -8 -3 10 11 -4 -13 -11
right_child=1 5 6 -5 -6 -7 7 -9 -10 13 -12 12 -14 -15
leaf_value=-0.0011649327213909403 0.01201759033186791 -0.026383080290503444 0.026530267617811337 0.035654498731526103 -0.092550373325099758 0.0014788330671793317 0.0058076292529482369 -0.065219922504425223 0.023287359011130271 0.022304059636909186 0.042245740071489513 -0.10761531662872809 -0.017166079151836437 -0.0084597821371850297
leaf_weight=4230712 33513 121386 57768 14136 28807 1668808 16915 15338 18706 391746 64392 20513 110377 118950
leaf_count=4230712 33513 121386 57768 14136 28807 1668808 16915 15338 18706 391746 64392 20513 110377 118950
internal_value=0 0.00183648 0.00598229 -0.0229087 -0.0362594 -0.000160897 0.00876249 -0.027853 -0.0197213 0.0103143 0.000577793 -0.0136241 -0.0313771 0.0151308
internal_weight=0 2.68136e+06 872455 76456 62320 1.8089e+06 795999 32253 140092 763746 253050 188658 130890 510696
internal_count=6912067 2681355 872455 76456 62320 1808900 795999 32253 140092 763746 253050 188658 130890 510696
is_linear=0
shrinkage=1


Tree=40
num_leaves=15
num_cat=0
split_feature=0 0 3 0 3 0 3 0 0 0 3 3 0 3
split_gain=9.60054 26.0749 55.2971 43.7148 58.8082 82.0939 46.108 39.4383 39.2431 51.8373 39.4963 63.5533 45.1009 27.6262
threshold=1.7587192442080968 2.4514359469110603 28.500000000000004 2.0924809649028577 14.500000000000002 1.9013607002685291 10.500000000000002 2.5018456199309127 2.1638974082624753 1.8091077721813849 37.500000000000007 34.500000000000007 1.9013607002685291 35.500000000000007
decision_type=2 2 2 2 2 2 2 2 2 2 2 2 2 2
left_child=-1 2 3 4 -2 -6 -5 -3 9 -4 11 -11 -12 -13
right_child=1 7 8 6 5 -7 -8 -9 -10 10 12 13 -14 -15
leaf_value=-0.00041366995775957735 0.0085901753079037097 -0.041842650330418125 0.031771098755447189 0.036972546323810335 0.013800206925998036 0.083672693958272509 -0.0018173332285929128 -0.00059791090665637509 0.02039354745065166 -0.02334880270052005 -0.053011857647254572 -0.18909501832125392 0.0088579705959539318 -0.08187814514404175
leaf_weight=6152535 75405 25639 16977 37295 33329 34267 170807 243747 33856 22730 17464 3504 35955 8557
leaf_count=6152535 75405 25639 16977 37295 33329 34267 170807 243747 33856 22730 17464 3504 35955 8557
internal_value=0 0.00335467 0.00770139 0.0143899 0.0278564 0.0492858 0.00511626 -0.00453931 -0.00915908 -0.0187098 -0.0284727 -0.0547192 -0.0112985 -0.113457
internal_weight=0 759532 490146 351103 143001 67596 208102 269386 139043 105187 88210 34791 53419 12061
internal_count=6912067 759532 490146 351103 143001 67596 208102 269386 139043 105187 88210 34791 53419 12061
is_linear=0
shrinkage=1


Tree=41
num_leaves=15
num_cat=0
split_feature=3 3 1 0 1 2 2 2 2 2 3 3 0 2
split_gain=16.6162 17.3197 37.701 35.4746 33.6286 28.2125 39.0926 27.4076 36.3549 21.6525 22.5438 14.9053 26.3979 55.1646
threshold=2.5000000000000004 4.5000000000000009 6.5000000000000009 -1.0000000180025095e-35 1.5000000000000002 8.5000000000000018 2.5000000000000004 22.500000000000004 6.5000000000000009 21.500000000000004 3.5000000000000004 5.5000000000000009 1.1167782532918051 11.500000000000002
decision_type=2 2 2 2 2 2 2 2 2 2 2 2 2 2
left_child=-1 2 3 4 -2 6 -6 8 -4 -7 -11 12 13 -3
right_child=1 11 7 -5 5 9 -8 -9 -10 10 -12 -13 -14 -15
leaf_value=0.0071455302680812792 0.010848686423828188 -0.031725229849341716 0.03739926210379918 -0.0054580881894034433 -0.067286138435439319 -0.062184851343394972 0.060533845516874622 0.069781933460005899 -0.014087685141063311 -0.070956933723396023 0.023804981987821428 -0.00017489633085589974 0.046260587622410733 0.018853288036594491
leaf_weight=310729 15258 29758 23114 211145 4079 39060 5745 7910 33575 3965 6742 6124909 18024 78054
leaf_count=310729 15258 29758 23114 211145 4079 39060 5745 7910 33575 3965 6742 6124909 18024 78054
internal_value=0 -0.000337172 -0.00717657 -0.0121126 -0.0308289 -0.0415674 0.00704431 0.0146135 0.00683688 -0.0512433 -0.0109389 4.58058e-05 0.0108194 0.0048544
internal_weight=0 6.60134e+06 350593 285994 74849 59591 9824 64599 56689 49767 10707 6.25074e+06 125836 107812
internal_count=6912067 6601338 350593 285994 74849 59591 9824 64599 56689 49767 10707 6250745 125836 107812
is_linear=0
shrinkage=1


Tree=42
num_leaves=15
num_cat=0
split_feature=0 0 3 1 0 2 2 3 0 3 2 0 3 2
split_gain=14.5519 38.7618 39.7851 37.9561 30.3354 50.5091 31.1059 47.9366 43.7517 37.832 30.5317 33.4736 26.9263 26.6316
threshold=0.83073047025062619 0.86077578709227931 27.500000000000004 2.5000000000000004 1.3850427960108316 21.500000000000004 16.500000000000004 36.500000000000007 2.0924809649028577 33.500000000000007 9.5000000000000018 1.5902545734615054 34.500000000000007 23.500000000000004
decision_type=2 2 2 2 2 2 2 2 2 2 2 2 2 2
left_child=-1 -2 13 12 5 -5 9 -8 -9 -6 11 -11 -4 -3
right_child=1 2 3 4 6 -7 7 8 -10 10 -12 -13 -14 -15
leaf_value=0.001020616204003381 -0.021788753702721556 -0.0031915576943093104 0.029987461718142452 -0.012573836493731949 -0.010173614733500385 0.022157929343872035 0.021196223656039615 -0.034207159907820937 0.025618528726304001 0.048522425835449835 0.042441037048300989 -0.0059168584744606015 0.0070623259927252184 -0.020277927687377861
leaf_weight=4625946 95477 1307360 82147 249408 37301 50247 44435 54428 15681 15754 58323 39531 137833 98196
leaf_count=4625946 95477 1307360 82147 249408 37301 50247 44435 54428 15681 15754 58323 39531 137833 98196
internal_value=0 -0.00206338 -0.00120177 0.00449785 0.000152462 -0.00673616 0.00794368 -0.00445349 -0.0207678 0.0173797 0.0264616 0.00952828 0.0156422 -0.00438821
internal_weight=0 2.28612e+06 2.19064e+06 785088 565108 299655 265453 114544 70109 150909 113608 55285 219980 1.40556e+06
internal_count=6912067 2286121 2190644 785088 565108 299655 265453 114544 70109 150909 113608 55285 219980 1405556
is_linear=0
shrinkage=1


Tree=43
num_leaves=15
num_cat=0
split_feature=3 0 3 3 1 2 0 3 2 0 2 3 3 1
split_gain=11.0383 40.2937 34.5224 33.722 22.1857 23.5179 21.03 35.849 30.1989 47.6825 39.6898 24.0075 23.8871 21.0005
threshold=21.500000000000004 1.5902545734615054 32.500000000000007 34.500000000000007 6.5000000000000009 14.500000000000002 0.66525867282544626 22.500000000000004 8.5000000000000018 0.72027288797590339 11.500000000000002 27.500000000000004 24.500000000000004 1.5000000000000002
decision_type=2 2 2 2 2 2 2 2 2 2 2 2 2 2
left_child=4 6 -3 -4 -1 -6 -2 -8 -9 11 -11 -10 -12 -14
right_child=1 2 3 -5 5 -7 7 8 9 10 12 -13 13 -15
leaf_value=0.0023669840438084858 -0.0018057098136497597 -0.022297663751077942 0.037873604167512342 -0.0067050473546476147 -0.01324715385820479 0.0012609345873463265 -0.021489520507321606 0.017223098046913268 -0.0056039873204307613 -0.016004003563815022 0.022012604087585246 0.037709793250430029 0.018153978589817227 -0.00099693675644837456
leaf_weight=2833561 2252059 158497 18719 179686 200730 250992 53578 168864 16615 126605 62349 53502 65136 471174
leaf_count=2833561 2252059 158497 18719 179686 200730 250992 53578 168864 16615 126605 62349 53502 65136 471174
internal_value=0 -0.00120206 -0.0112911 -0.00247773 0.00132844 -0.00517723 -9.96172e-05 0.00367138 0.00507374 0.0024892 7.61061e-05 0.0273896 0.00348358 0.00132175
internal_weight=0 3.62678e+06 356902 198405 3.28528e+06 451722 3.26988e+06 1.01782e+06 964245 795381 725264 70117 598659 536310
internal_count=6912067 3626784 356902 198405 3285283 451722 3269882 1017823 964245 795381 725264 70117 598659 536310
is_linear=0
shrinkage=1


Tree=44
num_leaves=15
num_cat=0
split_feature=1 2 2 2 2 0 0 0 0 3 2 3 0 2
split_gain=18.2514 51.881 124.764 94.8245 54.0486 31.0888 20.4669 49.153 19.3981 20.5896 38.2106 26.0059 63.0093 25.0483
threshold=1.5000000000000002 6.5000000000000009 8.5000000000000018 3.5000000000000004 11.500000000000002 -0.088846144205146138 0.83073047025062619 -1.0000000180025095e-35 -0.22943294241763976 10.500000000000002 14.500000000000002 14.500000000000002 0.40212061403276617 12.500000000000002
decision_type=2 2 2 2 2 2 2 2 2 2 2 2 2 2
left_child=1 3 5 -1 -4 -3 7 -5 -6 10 -10 12 -11 -13
right_child=-2 2 4 6 8 -7 -8 -9 9 11 -12 13 -14 -15
leaf_value=-0.002560705727836819 0.00060804021615823184 -0.0098555921365414707 -0.030647622203957812 -0.077320186850515366 0.014416904263457191 0.11219563565595721 -0.065133358355506515 -0.0042838868363569912 0.048704741359463434 -0.096139192604951143 0.0011696373119996144 0.029954888637187066 -0.0067605411096766698 -0.0043809800036628647
leaf_weight=140704 6061849 2446 59376 14670 91265 12168 33743 25101 21234 10341 83866 22850 33670 298784
leaf_count=140704 6061849 2446 59376 14670 91265 12168 33743 25101 21234 10341 83866 22850 33670 298784
internal_value=0 -0.00433942 0.00018796 -0.0177992 -0.00195418 0.0914993 -0.0469075 -0.0313342 0.00107052 -0.00150868 0.0108143 -0.00506186 -0.027865 -0.00192856
internal_weight=0 850218 636000 214218 621386 14614 73514 39771 562010 470745 105100 365645 44011 321634
internal_count=6912067 850218 636000 214218 621386 14614 73514 39771 562010 470745 105100 365645 44011 321634
is_linear=0
shrinkage=1


Tree=45
num_leaves=15
num_cat=0
split_feature=0 0 3 2 3 2 1 2 0 3 2 0 2 3
split_gain=12.1973 14.5749 47.415 38.812 28.7516 86.797 73.8778 44.5083 31.4785 15.8189 14.2894 37.2137 38.6515 24.0867
threshold=1.7757990911648405 1.9013607002685291 11.500000000000002 8.5000000000000018 7.5000000000000009 21.500000000000004 4.5000000000000009 17.500000000000004 2.044461613318008 9.5000000000000018 15.500000000000002 1.1832585901438895 3.5000000000000004 25.500000000000004
decision_type=2 2 2 2 2 2 2 2 2 2 2 2 2 2
left_child=10 2 3 9 5 7 -7 -3 -9 -2 11 -1 13 -13
right_child=1 4 -4 -5 -6 6 -8 8 -10 -11 -12 12 -14 -15
leaf_value=0.002418852736771857 -0.009693699656736136 -0.017052839495507701 0.0044483905549257685 0.10164306709332735 0.0040777422741370868 -0.1931855920415696 -0.0026571226338373468 -0.05810892086517986 0.10262277560682499 0.13497364455655061 -0.0019502320620627769 -0.036665546693561472 -0.0017974049198627145 -0.0058693756843788067
leaf_weight=2636097 6588 34814 74333 10338 602836 4875 3564 1504 5779 843 3157435 63815 266488 42758
leaf_count=2636097 6588 34814 74333 10338 602836 4875 3564 1504 5779 843 3157435 63815 266488 42758
internal_value=0 0.00381876 0.0156021 0.0620149 0.00215145 -0.0207451 -0.113268 -0.00208553 0.0688561 0.0062997 -0.000463706 0.00109474 -0.00825075 -0.0243487
internal_weight=0 745474 92102 17769 653372 50536 8439 42097 7283 7431 6.16659e+06 3.00916e+06 373061 106573
internal_count=6912067 745474 92102 17769 653372 50536 8439 42097 7283 7431 6166593 3009158 373061 106573
is_linear=0
shrinkage=1


Tree=46
num_leaves=15
num_cat=0
split_feature=0 0 2 3 3 0 3 0 0 0 3 3 0 1
split_gain=11.3295 14.6289 14.4295 56.2455 94.0196 113.817 72.1057 50.4436 94.0522 42.7862 42.3453 39.9111 32.0499 22.9221
threshold=3.019204599922253 3.0542369751272793 5.5000000000000009 9.5000000000000018 14.500000000000002 0.50982061439855786 7.5000000000000009 0.31114771979399719 0.69064090964817326 0.31114771979399719 12.500000000000002 8.5000000000000018 0.67548900799616163 2.5000000000000004
decision_type=2 2 2 2 2 2 2 2 2 2 2 2 2 2
left_child=2 -2 3 6 5 10 12 -6 -9 11 -5 -8 -1 -10
right_child=1 -3 -4 4 7 -7 9 8 13 -11 -12 -13 -14 -15
leaf_value=-0.0037299208724832248 -0.050109959830045195 -0.0042068114471172924 -0.00044164497929162554 -0.047251088311326336 0.017171853163833174 -0.014667119279020441 0.02653544718088607 -0.03143950073587494 0.018172763218924706 0.03195625461368478 -0.16100071805558733 0.13928733460868895 0.023321078383731975 -0.0011276831754688515
leaf_weight=92556 10150 22657 6069640 5506 176782 49449 4915 89934 97569 26732 8547 9206 82777 165647
leaf_count=92556 10150 22657 6069640 5506 176782 49449 4915 89934 97569 26732 8547 9206 82777 165647
internal_value=0 -0.0185387 8.67114e-05 0.00405265 -0.000971735 -0.0373359 0.0178627 0.00337872 -0.00351483 0.0557125 -0.116767 0.100361 0.00901885 0.00601173
internal_weight=0 32807 6.87926e+06 809620 593434 63502 216186 529932 353150 40853 14053 14121 175333 263216
internal_count=6912067 32807 6879260 809620 593434 63502 216186 529932 353150 40853 14053 14121 175333 263216
is_linear=0
shrinkage=1


Tree=47
num_leaves=15
num_cat=0
split_feature=2 3 3 2 1 0 0 0 1 2 0 2 0 2
split_gain=15.4243 33.3129 70.5008 84.4463 26.0252 41.4337 30.0957 21.1562 29.6527 38.2143 21.2009 63.7232 20.2357 29.4746
threshold=18.500000000000004 10.500000000000002 15.500000000000002 15.500000000000002 1.5000000000000002 2.0924809649028577 1.9013607002685291 -0.72365953147883244 2.5000000000000004 8.5000000000000018 -1.0643158929353036 9.5000000000000018 -0.43853500936043682 9.5000000000000018
decision_type=2 2 2 2 2 2 2 2 2 2 2 2 2 2
left_child=1 -1 3 -3 -5 6 -6 8 -4 -10 11 -11 13 -9
right_child=-2 2 7 4 5 -7 -8 12 9 10 -12 -13 -14 -15
leaf_value=-0.0063427245895258466 0.0020477521031123931 0.0033474242512508889 0.01099642998515955 -0.0023336305553062018 0.04409851932294185 0.0030517207326099596 0.13431752499222357 -0.013501500069102357 0.02538838630472438 -0.18889677456161233 -0.040558721750217491 0.0022147534017667669 -0.0016647908217884877 0.014278585639538984
leaf_weight=952801 2397985 365649 36982 18373 87936 26670 3906 48680 14702 1841 59741 30481 2690951 175369
leaf_count=952801 2397985 365649 36982 18373 87936 26670 3906 48680 14702 1841 59741 30481 2690951 175369
internal_value=0 -0.00109057 0.000313503 0.0112913 0.0324806 0.0379114 0.0479897 -0.0014888 -0.0133336 -0.0217989 -0.0293794 -0.00858817 -0.000903294 0.0082246
internal_weight=0 4.51408e+06 3.56128e+06 502534 136885 118512 91842 3.05875e+06 143747 106765 92063 32322 2.915e+06 224049
internal_count=6912067 4514082 3561281 502534 136885 118512 91842 3058747 143747 106765 92063 32322 2915000 224049
is_linear=0
shrinkage=1


Tree=48
num_leaves=15
num_cat=0
split_feature=2 1 2 1 3 0 3 2 0 0 0 3 3 2
split_gain=17.7584 30.3005 95.3879 119.085 40.8896 40.3675 28.6267 34.1159 24.0657 15.5096 16.7184 15.1122 14.4241 19.7051
threshold=12.500000000000002 5.5000000000000009 11.500000000000002 6.5000000000000009 3.5000000000000004 1.2541895029865715 1.5000000000000002 10.500000000000002 0.062963778298895365 2.8850799644596652 2.7716507335919962 7.5000000000000009 37.500000000000007 1.5000000000000002
decision_type=2 2 2 2 2 2 2 2 2 2 2 2 2 2
left_child=1 4 12 5 6 11 -1 8 -8 10 -2 -4 13 -3
right_child=9 2 3 -5 -6 -7 7 -9 -10 -11 -12 -13 -14 -15
leaf_value=-0.020645241073213812 -0.0011742115316211289 0.015747361348525751 0.061836967900343036 0.077063394320497886 -0.0013626130442665277 -0.069705142334146569 -0.011028869933977692 0.056156532806068103 0.025212290705585817 0.013988913792179879 -0.020239899935723053 0.0064591146048998344 0.014660125939306809 -0.0018464252078349761
leaf_weight=17025 4453415 76037 5894 42117 1574486 6554 26657 24591 57727 66656 46496 31409 93144 389859
leaf_count=17025 4453415 76037 5894 42117 1574486 6554 26657 24591 57727 66656 46496 31409 93144 389859
internal_value=0 0.00223825 0.00807414 0.0390868 2.22528e-05 0.00251874 0.0173582 0.0233332 0.0137163 -0.00114702 -0.00137213 0.0153269 0.00329713 0.00101661
internal_weight=0 2.3455e+06 645014 85974 1.70049e+06 43857 126000 108975 84384 4.56657e+06 4.49991e+06 37303 559040 465896
internal_count=6912067 2345500 645014 85974 1700486 43857 126000 108975 84384 4566567 4499911 37303 559040 465896
is_linear=0
shrinkage=1


Tree=49
num_leaves=15
num_cat=0
split_feature=0 3 3 0 0 2 3 1 1 3 3 1 1 0
split_gain=12.7273 14.2241 37.7307 33.0776 46.1127 37.0897 91.7787 48.3743 36.3024 29.2138 103.058 43.2761 55.1256 33.5182
threshold=2.372577356142632 14.500000000000002 8.5000000000000018 -0.70324853421870492 0.40212061403276617 19.500000000000004 11.500000000000002 5.5000000000000009 5.5000000000000009 10.500000000000002 9.5000000000000018 6.5000000000000009 1.5000000000000002 0.090743938022688694
decision_type=2 2 2 2 2 2 2 2 2 2 2 2 2 2
left_child=1 2 -1 -4 5 9 8 -8 -7 10 11 12 -5 -11
right_child=-2 -3 3 4 -6 6 7 -9 -10 13 -12 -13 -14 -15
leaf_value=0.00060780183002889007 0.0061621878132370909 0.0006047073712983624 0.027016050134125013 0.023559524197478032 -0.0036530367383768676 -0.02563844916677073 -0.051704287451490485 -0.133679592857364 0.053392388983852179 0.0031595798091200032 -0.56655313421565501 0.037786251046387768 -0.093599832040226719 -0.029395474878953092
leaf_weight=1189276 319735 4782852 24413 5573 371842 16290 23968 10481 9019 89838 367 5855 13907 48651
leaf_count=1189276 319735 4782852 24413 5573 371842 16290 23968 10481 9019 89838 367 5855 13907 48651
internal_value=0 -0.000298107 -0.00268665 -0.00901032 -0.0104936 -0.0218331 -0.043196 -0.0767848 0.00237409 -0.014032 -0.0450251 -0.037147 -0.0598805 -0.00824906
internal_weight=0 6.59233e+06 1.80948e+06 620204 595791 223949 59758 34449 25309 164191 25702 25335 19480 138489
internal_count=6912067 6592332 1809480 620204 595791 223949 59758 34449 25309 164191 25702 25335 19480 138489
is_linear=0
shrinkage=1


Tree=50
num_leaves=15
num_cat=0
split_feature=1 2 2 2 0 2 2 2 2 0 2 3 3 0
split_gain=15.6869 61.6822 129.249 79.1197 21.8488 14.634 17.74 12.9041 67.3736 39.9539 34.2477 11.7906 105.04 82.0678
threshold=6.5000000000000009 14.500000000000002 12.500000000000002 13.500000000000002 2.3130302284397972 16.500000000000004 19.500000000000004 8.5000000000000018 9.5000000000000018 1.336315127935475 6.5000000000000009 36.500000000000007 34.500000000000007 0.72995825049525231
decision_type=2 2 2 2 2 2 2 2 2 2 2 2 2 2
left_child=-1 2 7 -4 11 -6 -7 10 -9 -10 -2 12 -3 -14
right_child=1 4 3 -5 5 6 -8 8 9 -11 -12 -13 13 -15
leaf_value=0.00060152754922770263 -0.0041649888753912652 0.0058777236887899015 -0.074781502692499668 -0.017215733256349872 0.020287117007753024 -0.078942015436107391 -0.012041931913686164 0.068663598224561487 -0.012186026407878924 0.044178483220814573 -0.051569650559563716 0.015969468067459611 -0.11826228889528695 0.02465915905258164
leaf_weight=5960943 189802 415472 46387 49666 4712 7352 8961 14606 86440 14696 16597 78234 12299 5900
leaf_count=5960943 189802 415472 46387 49666 4712 7352 8961 14606 86440 14696 16597 78234 12299 5900
internal_value=0 -0.00377163 -0.0128644 -0.0450614 0.00335612 -0.0282052 -0.0424602 -0.00325099 0.00517965 -0.00395352 -0.00799802 0.00466062 0.00261104 -0.0717173
internal_weight=0 951124 418194 96053 532930 21025 16313 322141 115742 101136 206399 511905 433671 18199
internal_count=6912067 951124 418194 96053 532930 21025 16313 322141 115742 101136 206399 511905 433671 18199
is_linear=0
shrinkage=1


Tree=51
num_leaves=15
num_cat=0
split_feature=1 3 2 3 0 1 3 0 0 3 3 0 2 3
split_gain=5.58838 31.85 34.5406 59.384 52.7746 33.2757 32.744 30.2353 37.7092 33.8197 21.5341 62.7361 33.9418 24.7127
threshold=2.5000000000000004 28.500000000000004 1.5000000000000002 30.500000000000004 0.73955070535304857 1.5000000000000002 12.500000000000002 0.31114771979399719 0.72995825049525231 35.500000000000007 17.500000000000004 1.6873240232143096 20.500000000000004 14.500000000000002
decision_type=2 2 2 2 2 2 2 2 2 2 2 2 2 2
left_child=1 6 5 4 -4 -3 -1 9 -9 -5 11 -8 -12 -13
right_child=-2 2 3 7 -6 -7 10 8 -10 -11 12 13 -14 -15
leaf_value=-0.0047148725556461751 0.0005419944934058012 -0.021125562409461576 -0.035943987936213596 0.025516781073082896 0.011027161108369507 -0.10642021528583255 0.02015371680633931 -0.023537508397808545 0.00072197095777740963 -0.0016880241690503534 0.0067807962503261109 -0.10993273432839964 -0.012804364967814341 -0.017666819974003392
leaf_weight=495432 5066048 16327 99619 75898 31319 6446 172203 94081 199922 114192 415727 4755 112319 7779
leaf_count=495432 5066048 16327 99619 75898 31319 6446 172203 94081 199922 114192 415727 4755 112319 7779
internal_value=0 -0.00149033 -0.00720834 -0.00578452 -0.0246784 -0.0454713 0.00152486 -0.000665509 -0.00702786 0.00915368 0.00586751 0.0151645 0.0026072 -0.0530333
internal_weight=0 1.84602e+06 637804 615031 130938 22773 1.20822e+06 484093 294003 190090 712783 184737 528046 12534
internal_count=6912067 1846019 637804 615031 130938 22773 1208215 484093 294003 190090 712783 184737 528046 12534
is_linear=0
shrinkage=1


Tree=52
num_leaves=15
num_cat=0
split_feature=0 0 1 0 2 2 2 2 3 0 0 0 0 2
split_gain=9.19295 32.2095 36.9466 22.7087 16.497 30.282 16.2056 25.3217 26.8984 32.5933 26.5601 24.9606 18.0358 17.5118
threshold=0.62325745929580278 0.25075114815255334 3.5000000000000004 0.31114771979399719 13.500000000000002 8.5000000000000018 1.5000000000000002 7.5000000000000009 37.500000000000007 0.46686882273893798 0.46686882273893798 0.40212061403276617 0.46686882273893798 8.5000000000000018
decision_type=2 2 2 2 2 2 2 2 2 2 2 2 2 2
left_child=1 -1 3 -3 5 -5 12 8 9 -8 -10 13 -4 -9
right_child=-2 2 6 4 -6 -7 7 11 10 -11 -12 -13 -14 -15
leaf_value=-0.00097752485850552493 -0.0013641133716847185 0.024918035511921836 0.04639586239443047 -0.0006000180469250073 0.0034571030367098439 0.026500836782727206 -0.0077264307427553107 0.043313703623680234 0.078436781567119682 -0.062608791722275334 -0.030947985656515402 0.0063146304253468731 -0.004400945324496512 -0.0074477229906547522
leaf_weight=2726105 2886081 100272 15815 67227 277880 105460 25312 6948 4868 19153 4005 396286 12281 264374
leaf_count=2726105 2886081 100272 15815 67227 277880 105460 25312 6948 4868 19153 4005 396286 12281 264374
internal_value=0 0.000974401 0.00507103 0.0112882 0.00824574 0.0159278 0.000493542 -0.000419348 -0.021389 -0.0314632 0.028629 0.00125023 0.0240546 -0.00613192
internal_weight=0 4.02599e+06 1.29988e+06 550839 450567 172687 749042 720946 53338 44465 8873 667608 28096 271322
internal_count=6912067 4025986 1299881 550839 450567 172687 749042 720946 53338 44465 8873 667608 28096 271322
is_linear=0
shrinkage=1


Tree=53
num_leaves=15
num_cat=0
split_feature=0 0 0 0 1 2 2 1 0 3 2 1 0 0
split_gain=7.79941 13.9626 20.0108 18.4924 12.2376 9.19989 8.70247 8.4 8.55449 8.24763 6.79888 6.42544 16.9738 14.7471
threshold=-1.2554200159072522 -0.90394442557896915 -0.85573531899962585 -0.98091814980278613 6.5000000000000009 10.500000000000002 7.5000000000000009 2.5000000000000004 -1.1875778929144405 3.5000000000000004 20.500000000000004 3.5000000000000004 1.5051872751454309 1.433892629611685
decision_type=2 2 2 2 2 2 2 2 2 2 2 2 2 2
left_child=9 3 -3 4 7 -5 -6 -2 -9 -1 -7 12 13 -4
right_child=1 2 11 5 6 10 -8 8 -10 -11 -12 -13 -14 -15
leaf_value=0.044312287676871266 0.0097416836151796964 -0.035381694637973984 -0.0019458954256511042 0.037006070143965043 -0.031859083345202606 0.0077489694749689223 0.040643180031615912 -0.0027320753079893316 -0.029066431931472354 -0.019569507920468354 0.030259576777530436 0.00077174241720412548 0.0043578253874514182 -0.020917761602273825
leaf_weight=2121 21023 16085 2356042 20571 1933 58960 9573 29636 21599 30885 17711 3825182 459004 41742
leaf_count=2121 21023 16085 2356042 20571 1933 58960 9573 29636 21599 30885 17711 3825182 459004 41742
internal_value=0 7.31323e-05 -0.000160488 0.00873991 -0.00210788 0.0181247 0.0281026 -0.00697621 -0.0139145 -0.0153341 0.0130035 -7.50645e-05 -0.00121032 -0.0022779
internal_weight=0 6.87906e+06 6.69806e+06 181006 83764 97242 11506 72258 51235 33006 76671 6.68197e+06 2.85679e+06 2.39778e+06
internal_count=6912067 6879061 6698055 181006 83764 97242 11506 72258 51235 33006 76671 6681970 2856788 2397784
is_linear=0
shrinkage=1


Tree=54
num_leaves=15
num_cat=0
split_feature=2 1 1 2 0 0 3 3 0 2 3 0 3 2
split_gain=5.08708 21.7456 71.7069 41.219 39.6437 63.4302 21.8228 20.7485 19.1262 16.5956 17.2556 19.5628 14.136 14.1246
threshold=5.5000000000000009 2.5000000000000004 1.5000000000000002 2.5000000000000004 0.83073047025062619 0.58500114237739143 2.5000000000000004 4.5000000000000009 -0.015126521585510457 3.5000000000000004 9.5000000000000018 0.91828674250892395 34.500000000000007 1.5000000000000002
decision_type=2 2 2 2 2 2 2 2 2 2 2 2 2 2
left_child=1 2 4 -4 5 6 13 -8 -5 -10 11 -11 -12 -1
right_child=-2 -3 3 8 -6 -7 7 -9 9 10 12 -13 -14 -15
leaf_value=0.014182676807429542 -0.00031272390112796098 -0.0016858710323698228 0.008423373439643533 0.083511293435763412 -0.018947403052307198 0.05712134467244364 0.038374584946311172 -0.0048388873138832675 0.060719183668271677 0.0055649901293916438 -0.011146419363937407 0.11406292125293158 0.043494991091851933 -0.10920387920878197
leaf_weight=1262 6098508 504934 50419 11931 83451 22629 13003 75797 19476 3110 13558 3775 7217 2997
leaf_count=1262 6098508 504934 50419 11931 83451 22629 13003 75797 19476 3110 13558 3775 7217 2997
internal_value=0 0.00234941 0.00896428 0.0295232 -0.00231955 0.00964076 -0.00186571 0.00144653 0.0474627 0.0382415 0.0222577 0.0656934 0.00765177 -0.0717446
internal_weight=0 813559 308625 109486 199139 115688 93059 88800 59067 47136 27660 6885 20775 4259
internal_count=6912067 813559 308625 109486 199139 115688 93059 88800 59067 47136 27660 6885 20775 4259
is_linear=0
shrinkage=1


Tree=55
num_leaves=15
num_cat=0
split_feature=2 3 3 2 1 2 0 2 0 3 3 1 1 3
split_gain=7.92451 15.3811 78.3159 80.0912 77.5952 32.5349 26.7053 38.3116 26.6134 52.8812 46.5021 43.7045 66.1532 42.0002
threshold=18.500000000000004 36.500000000000007 34.500000000000007 14.500000000000002 1.5000000000000002 16.500000000000004 1.985817204114581 5.5000000000000009 0.94972363732248632 28.500000000000004 16.500000000000004 6.5000000000000009 2.5000000000000004 29.500000000000004
decision_type=2 2 2 2 2 2 2 2 2 2 2 2 2 2
left_child=1 2 5 6 -5 -1 -4 -8 9 10 -7 12 -12 -11
right_child=-2 -3 3 4 -6 8 7 -9 -10 13 11 -13 -14 -15
leaf_value=0.00042387849426058714 0.0014711097876310281 -0.0050698406988884809 0.010348813339338962 -0.041074670954625754 0.071782642786921785 -0.0052956990849326382 0.13916598055537902 -0.094685573608474877 0.0040516281931229966 0.035158893259372007 -0.0040649001220570379 0.011210301223459205 -0.048338332291683293 -0.0051780110554947066
leaf_weight=3030022 2397985 704771 103130 7075 41930 161908 801 4804 150255 35924 49131 23793 109257 91281
leaf_count=3030022 2397985 704771 103130 7075 41930 161908 801 4804 150255 35924 49131 23793 109257 91281
internal_value=0 -0.000778366 1.45693e-05 0.0218308 0.0554037 -0.000926794 0.00666057 -0.0604123 -0.00751762 -0.0112145 -0.017658 -0.028622 -0.0346311 0.0061835
internal_weight=0 4.51408e+06 3.80931e+06 157740 49005 3.65157e+06 108735 5605 621549 471294 344089 182181 158388 127205
internal_count=6912067 4514082 3809311 157740 49005 3651571 108735 5605 621549 471294 344089 182181 158388 127205
is_linear=0
shrinkage=1


Tree=56
num_leaves=15
num_cat=0
split_feature=1 2 2 0 3 0 1 3 3 3 2 2 1 1
split_gain=6.24627 23.114 67.8669 30.9097 46.2997 30.0721 12.9069 29.2301 13.0709 11.2416 63.945 74.7269 41.576 34.7178
threshold=2.5000000000000004 8.5000000000000018 6.5000000000000009 1.433892629611685 27.500000000000004 1.1647108734738028 6.5000000000000009 18.500000000000004 3.5000000000000004 37.500000000000007 8.5000000000000018 9.5000000000000018 1.5000000000000002 1.5000000000000002
decision_type=2 2 2 2 2 2 2 2 2 2 2 2 2 2
left_child=9 2 -2 4 6 -6 7 8 -4 10 12 -12 -1 -11
right_child=1 -3 3 -5 5 -7 -8 -9 -10 13 11 -13 -14 -15
leaf_value=-0.0057579646886895507 0.00036809110755451317 -0.00028660831748823513 0.058635060696703337 -0.0039923919099404664 -0.0039297170629802878 0.073941147445414065 0.0011768153479193605 0.070797869627456989 0.021732915310059327 0.0166918905315981 0.041737812262066659 -0.00081897574702098348 -0.029040786534405352 -0.006590543635198268
leaf_weight=189388 539382 4356588 13386 33177 42863 5592 6830 31846 36384 122991 42685 1228100 129527 133328
leaf_count=189388 539382 4356588 13386 33177 42863 5592 6830 31846 36384 122991 42685 1228100 129527 133328
internal_value=0 0.000574493 0.00586785 0.0232854 0.029925 0.00498457 0.0435418 0.0470377 0.0317457 -0.00157413 -0.00256665 0.000607575 -0.0152273 0.00456576
internal_weight=0 5.06605e+06 709460 170078 136901 48455 88446 81616 49770 1.84602e+06 1.5897e+06 1.27078e+06 318915 256319
internal_count=6912067 5066048 709460 170078 136901 48455 88446 81616 49770 1846019 1589700 1270785 318915 256319
is_linear=0
shrinkage=1


Tree=57
num_leaves=15
num_cat=0
split_feature=2 2 3 0 3 3 2 0 3 2 0 0 0 1
split_gain=14.0057 60.1618 81.6118 46.2903 37.875 73.6447 23.5934 53.6863 30.0088 23.4613 22.6809 24.3794 32.6908 21.4691
threshold=5.5000000000000009 9.5000000000000018 29.500000000000004 0.31114771979399719 32.500000000000007 37.500000000000007 7.5000000000000009 1.0490703095561604 10.500000000000002 8.5000000000000018 -1.0643158929353036 1.433892629611685 2.0261723955309097 2.5000000000000004
decision_type=2 2 2 2 2 2 2 2 2 2 2 2 2 2
left_child=13 2 6 9 -5 -6 7 -2 -9 -4 -8 -12 -13 -1
right_child=1 -3 3 4 5 -7 10 8 -10 -11 11 12 -14 -15
leaf_value=0.010468898745654744 -0.025524902074711166 0.00046783917874048504 0.0076097032497960187 0.030797402334319809 -0.053227195548750356 0.0056407625820555545 -0.10836443226453982 0.055783934364769992 -0.0023311571663723854 0.047421958736539274 -0.018700865991755727 -0.087432801861077145 -0.025633721338853943 -0.00011022861794548908
leaf_weight=308625 50362 5549794 27343 24348 31298 65868 3134 16872 18494 32988 238265 12737 27005 504934
leaf_count=308625 50362 5549794 27343 24348 31298 65868 3134 16872 18494 32988 238265 12737 27005 504934
internal_value=0 -0.000519081 -0.0105081 0.00679788 -0.00441592 -0.0132826 -0.019097 -0.00451623 0.0252866 0.0294479 -0.0235287 -0.022555 -0.0455532 0.00389812
internal_weight=0 6.09851e+06 548714 181845 121514 97166 366869 85728 35366 60331 281141 278007 39742 813559
internal_count=6912067 6098508 548714 181845 121514 97166 366869 85728 35366 60331 281141 278007 39742 813559
is_linear=0
shrinkage=1


Tree=58
num_leaves=15
num_cat=0
split_feature=1 2 1 2 3 3 3 2 0 0 3 3 1 3
split_gain=6.47636 11.6989 13.2715 41.4582 33.1284 21.8299 17.5194 14.4093 37.0107 18.4173 19.6051 26.7037 13.8554 15.172
